/* USER CODE BEGIN Header */
/**
  ******************************************************************************
  * @file           : main.c
  * @brief          : Main program body
  ******************************************************************************
  * @attention
  *
  * Copyright (c) 2024 STMicroelectronics.
  * All rights reserved.
  *
  * This software is licensed under terms that can be found in the LICENSE file
  * in the root directory of this software component.
  * If no LICENSE file comes with this software, it is provided AS-IS.
  *
  ******************************************************************************
  */
/* USER CODE END Header */
/* Includes ------------------------------------------------------------------*/
#include "main.h"

/* Private includes ----------------------------------------------------------*/
/* USER CODE BEGIN Includes */

#include "arm_math.h"
#include "math_helper.h"
#include "MVDR.h"

/* USER CODE END Includes */

/* Private typedef -----------------------------------------------------------*/
/* USER CODE BEGIN PTD */

/* USER CODE END PTD */

/* Private define ------------------------------------------------------------*/
/* USER CODE BEGIN PD */

#define SNR_THRESHOLD   90

#define CPUFREQ 550

/* USER CODE END PD */

/* Private macro -------------------------------------------------------------*/
/* USER CODE BEGIN PM */

/* USER CODE END PM */

/* Private variables ---------------------------------------------------------*/

/* USER CODE BEGIN PV */

uint8_t arraySize = 8;

uint16_t snapshotSize = 512;

uint64_t execcyc = 0;
double execus = 0.0;

const float32_t qiescentWeights[16] = {1,0,1,0,1,0,1,0,1,0,1,0,1,0,1,0};

float32_t mvdrWeights[16];

volatile float32_t snapshotI[4096] = {-129.3531,87.51707,55.14651,145.2848,-127.0914,104.3229,-109.1595,-76.79922,19.25229,23.66779,-39.39579,-74.90959,68.04478,31.23286,-29.56476,-45.60377,-94.81882,63.50129,-45.37757,-57.58197,12.96025,-32.08968,-3.04005,46.27069,-61.6726,170.8612,-15.83663,-27.92371,47.81604,121.7069,145.3984,96.55537,-58.24102,5.560836,-10.28096,-21.67938,42.06588,-146.5578,31.51447,-5.630771,19.32559,-64.27361,-157.5558,15.10595,-108.5737,73.72182,-162.518,-25.4266,-74.29286,58.67047,18.26416,-50.09857,58.90998,-166.3919,-1.563555,-104.1386,116.7453,26.34712,-20.57719,-138.4306,-69.56942,34.92048,7.492887,45.2678,-2.256113,-39.75189,14.24765,-9.163371,-10.11191,-108.3447,168.0144,38.42142,10.50358,46.08192,15.86629,28.89268,-12.86703,-42.23006,72.56677,-167.8466,-150.2264,126.8658,91.66254,58.10443,11.47067,-55.82809,-56.88477,24.06907,-55.8838,-42.08192,-104.9256,13.60825,-12.91496,-69.55067,-49.73859,-2.493375,66.45065,-45.7035,-25.08179,-155.3087,23.68808,-72.88285,146.5582,-16.95372,-313.1074,-90.7077,-3.182321,-73.8873,87.88213,96.63503,-61.56092,3.93515,58.57621,192.1248,14.74183,126.3553,-122.9527,102.6607,87.38801,108.3605,-82.92832,-36.27669,-27.14045,-82.41691,101.1541,-41.01552,116.025,-55.93893,-3.95926,102.2369,3.521431,122.5407,-69.61178,105.9596,70.0924,82.09217,-62.86037,-2.790069,-18.94996,-43.46313,-25.90659,70.80433,-62.8748,190.0418,16.58747,-12.83365,-145.9612,-6.768831,-55.72572,138.977,-0.1158073,16.51888,45.08987,-9.116467,-74.47872,-71.67144,3.890461,1.677187,10.35003,244.9585,104.1941,-40.80484,-114.9702,94.47186,-99.11485,-28.1779,241.3901,90.94307,14.22943,-102.1547,-37.7993,161.2197,-23.78192,51.52423,-69.48579,-242.5238,-115.871,-0.8508222,-120.6266,-80.58183,27.74116,-32.1669,26.09804,-145.3642,-129.251,-111.8154,63.01669,-33.72841,-124.1905,94.27119,25.45827,-37.73353,-58.92674,-36.69613,16.18793,-119.4045,4.520895,-145.7512,-91.56216,52.16048,-12.20254,13.89868,-22.23564,60.29063,106.8254,-115.5084,-17.03661,-108.8033,-4.410644,-5.606661,-8.791032,-220.6817,69.3233,3.95552,104.0607,-17.1717,-19.96276,112.3207,78.86391,41.37506,-70.5904,15.07908,16.7171,-47.27238,145.1344,-70.1379,-86.61266,23.2386,45.29636,6.784556,2.247261,-36.02589,197.9865,34.50768,40.43307,-22.96405,65.01736,211.7654,-158.6131,94.86181,-206.5389,-112.3618,24.3973,2.450041,69.09606,47.47648,-118.658,42.51134,-105.9528,130.7792,8.738883,44.27094,-55.55867,93.79439,74.75285,44.95493,211.5398,24.22198,-48.66996,60.21822,7.275933,-0.6565648,-30.55231,45.01426,-169.228,13.60516,-16.89599,71.71526,161.767,-57.37771,183.268,90.76443,-88.41608,43.54309,-38.5706,-192.6421,92.52953,-21.07152,-0.4903252,-85.74695,35.08309,30.15118,-35.22321,30.83936,16.78006,-6.478148,-4.660772,-32.12124,-140.9341,63.58831,-29.72453,23.8257,-16.53438,-80.02116,27.67946,66.17857,24.87788,-145.4662,-78.63547,34.6554,39.63599,-13.50896,65.92864,-65.1441,51.39383,-84.21027,74.67847,51.43348,-29.43221,151.7028,94.93011,37.40302,-9.422924,-83.82041,-0.4523573,-3.219394,115.047,-119.4478,91.4519,1.796768,40.96449,19.6692,46.28862,-194.7501,49.42841,65.85301,-132.7754,-52.4019,-11.86347,-96.07996,-81.49695,-106.3386,-89.02652,98.76964,-117.7549,146.5465,-148.5767,-7.507036,-47.42558,-156.288,111.4575,88.20865,-127.3359,21.06781,12.41646,-27.51594,101.2185,-196.2345,3.741198,27.43932,174.9449,6.823224,-192.7925,2.670961,-70.91288,25.29161,-183.2949,-71.72533,96.84879,-19.79926,-18.39844,-3.741232,66.63834,78.61507,-61.2765,58.94531,-18.40619,231.7588,-40.63062,-116.8169,39.05686,35.17794,153.0131,-33.68472,-87.5071,-14.98672,54.40607,2.833542,-152.5208,9.448383,63.30286,-8.549812,102.8668,47.94275,-31.68786,27.81741,-47.92112,78.18211,56.96748,-121.6392,133.6627,-22.06245,151.7032,-34.10509,-127.7473,72.92864,-23.76795,174.3045,-23.63117,-98.09824,117.3758,-151.574,-84.38055,-74.13504,-29.12167,30.82446,-141.2583,6.146911,43.81142,-19.58845,0.588531,69.17086,-58.08259,46.9769,-37.76566,59.81587,-69.00603,89.60729,85.49264,-103.7996,145.911,-13.39673,-30.17479,60.49914,81.8878,-118.5924,-46.92598,-31.93939,-18.70687,75.62766,30.68927,-122.1693,-0.2862258,160.2063,79.39585,-65.28091,29.05349,59.54585,-6.725433,-28.04535,-72.20197,-166.8878,-101.963,152.3837,3.748232,-70.53928,-91.19242,-8.827204,-48.8689,126.6109,17.92394,-41.37658,-82.61248,49.98411,290.0119,-64.3155,-10.73624,13.05699,64.46641,-68.02141,-11.45392,168.9897,-38.11599,-52.24583,-62.95388,188.4941,219.9236,-73.16642,-7.1926,118.4316,-76.28202,79.5293,-61.0762,-37.6312,-45.41963,-120.2987,-11.68805,22.97246,-87.90527,-93.458,-111.4466,184.3556,37.35284,48.32086,-69.94154,-41.59817,41.90072,-164.7969,-88.6576,79.99564,-142.0332,-45.52557,-53.64486,-1.646245,-195.1443,122.1708,-135.7213,-14.1009,15.23908,-59.19939,11.55823,61.51312,45.7093,-94.16149,13.83601,-71.22123,115.4071,-113.4519,52.94996,87.56668,28.55437,121.4819,121.1217,-78.4111,-48.68555,-135.127,118.6119,-97.30025,97.05684,60.30024,-16.4168,-23.28391,36.43847,63.50174,-62.14508,-26.37911,26.86281,40.84504,86.66016,-52.37152,34.75898,48.3361,-22.65011,30.59481,2.38271,-37.56189,48.36223,-149.5093,20.98764,25.55803,-35.97764,-105.3516,-127.3652,-80.32854,59.75203,-9.864697,10.33614,26.45738,-40.00663,121.6442,-34.8392,2.211403,-15.1883,58.03452,133.3061,-15.66174,89.53204,-62.62317,141.1111,29.03841,65.67776,-51.54836,-18.72193,43.49012,-54.76653,150.1089,2.829939,93.96964,-99.02197,-23.72482,20.92267,125.006,67.97269,-32.73807,-6.471489,-39.56097,-7.165257,41.96644,-13.35057,0.6799137,13.17957,97.20006,-154.3665,-27.94161,0.2113631,-33.70059,-5.764255,-23.47191,5.370172,43.48105,-59.84607,143.8349,130.8389,-113.4812,-79.16313,-49.20538,-17.63708,53.146,53.58599,-19.44197,57.10793,50.40207,96.2112,-18.55812,13.98035,65.58024,45.05071,-7.659286,-63.51599,38.92977,23.34014,128.4279,-35.77637,62.55384,-136.0352,15.36882,267.7309,78.24377,3.79721,72.65549,-70.09064,-81.25111,55.17449,-5.004913,-52.4622,-171.4864,-15.754,-111.1772,106.3858,-94.88483,-78.15406,-107.5089,72.07929,30.32596,24.07965,77.62292,-92.741,41.89067,-100.088,64.82289,9.220899,-92.29454,3.866697,-109.6496,63.32287,-94.97169,-58.69205,-73.85144,55.43895,12.67769,22.39755,40.84809,31.77786,-59.48365,57.29346,-176.7444,-6.478315,9.910554,125.9533,7.54898,52.84962,-120.5679,1.817835,-17.56882,-42.57692,15.23169,72.27436,51.54483,-12.91662,2.377585,-9.896651,-217.5669,-94.69826,35.5251,101.7379,-74.39504,91.74782,19.29097,-202.3029,-79.50451,-5.699772,89.24674,26.10806,-146.0306,16.11608,-52.61471,58.85232,215.6492,110.8167,-4.744279,110.2946,72.73946,-26.90068,23.99029,-10.35327,130.6169,106.2201,100.865,-56.10197,37.98066,102.0653,-87.87849,-32.21429,34.61598,49.50147,33.12804,-15.28583,109.2205,-10.63482,130.003,79.74979,-40.04576,20.14656,-17.37259,30.33086,-47.10611,-87.13532,97.56427,5.554292,90.94258,5.31373,4.24927,9.678602,194.7525,-66.09836,-11.87809,-93.73814,17.08291,8.097107,-90.48129,-75.95002,-39.82691,69.076,-19.03837,-18.99183,44.47443,-126.4034,62.0616,80.4968,-19.58226,-39.53458,0.5942599,-3.004446,34.71383,-173.8898,-35.85484,-32.24949,15.87264,-57.04006,-184.7915,148.7474,-83.0761,186.3948,91.77441,-26.13166,-2.080435,-55.09162,-41.35388,96.73306,-38.91377,94.87576,-125.9772,-7.846631,-36.57247,50.31466,-85.51891,-74.12807,-50.10454,-191.0244,-22.84131,41.93419,-54.01487,-9.882149,0.8371599,30.14268,-32.96169,151.7399,-16.58851,14.3292,-64.53036,-148.6017,54.1945,-166.2196,-73.42018,87.53853,-38.17511,27.33764,177.7433,-78.42815,15.99798,-3.696945,69.22626,-39.52459,-23.8055,29.29391,-27.69443,-12.20862,-3.166877,13.05689,24.02173,119.0143,-57.57912,33.89372,-31.04907,15.00021,77.1462,-23.67677,-56.77858,-30.28717,129.7018,71.45291,-27.9999,-30.19761,12.07523,-61.70081,69.92749,-51.83678,78.10786,-59.90001,-42.48281,19.27459,-131.8749,-85.9349,-33.7875,4.570965,74.35503,-10.02213,2.061021,-95.34604,101.5426,-86.56937,-3.237948,-35.05708,-18.56126,-46.27763,174.0974,-38.76501,-58.38779,117.5134,44.45604,13.98272,84.04174,79.6074,92.50396,84.84424,-89.14012,107.9155,-135.483,140.4957,8.267754,41.70681,150.7984,-96.39355,-79.28877,116.0297,-19.29159,-6.117097,22.94177,-92.7347,187.7032,-2.489208,-18.57234,-155.1068,-5.710413,168.3459,4.297827,62.68534,-23.4613,169.8789,60.43139,-88.82239,14.58563,16.72455,4.121537,-68.37711,-73.11557,51.92986,-48.84505,12.5598,-214.4194,35.22894,107.8879,-24.24632,-36.59649,-141.4433,28.29498,81.31848,22.49651,-44.45646,-1.477464,135.1407,-12.56233,-55.55052,11.89515,-93.16111,-42.37403,28.12593,-18.154,47.32645,-69.87434,-52.48156,116.0694,-109.1003,14.30108,-141.0213,29.41104,108.3885,-72.39249,22.83498,-160.8679,25.09059,87.67773,-97.41483,137.9751,72.61064,74.67407,29.67378,-24.208,128.0363,-3.86992,-43.05947,4.479458,1.92797,-67.77809,52.68232,-39.02141,30.03851,-50.06495,58.89395,-74.97366,-75.39296,90.34402,-131.6839,8.29862,25.71831,-53.369,-77.65291,108.2227,41.97311,29.76168,26.47141,-64.69938,-22.40431,111.7981,1.75145,-144.4023,-72.85742,63.78513,-25.38338,-55.89952,0.07632853,21.6216,72.27884,149.7454,86.64926,-136.5052,-1.372295,67.7368,81.41818,18.64816,58.53556,-113.3322,-11.32816,42.47893,77.90665,-39.03218,-258.9748,57.38556,15.04268,-12.92163,-58.21912,63.48247,6.583491,-156.3318,34.01645,52.18703,63.85057,-167.9446,-192.1999,61.0952,7.064803,-112.4224,56.19556,-67.44264,57.99921,39.31672,36.58364,109.7596,19.32936,-20.02805,78.64097,77.03175,103.6545,-165.4279,-32.33901,-34.64837,58.01159,37.884,-36.29608,153.9872,79.78492,-67.82373,130.2605,41.51764,53.0578,0.7031258,173.1463,-106.3319,120.0463,16.33475,-18.07326,54.02437,-16.63157,-53.32264,-38.22503,82.51476,-11.7423,57.36471,-100.4954,99.28847,-44.61245,-76.61282,-24.92526,-109.0217,-6.713928,38.77502,36.17493,10.99066,11.33288,6.543715,-45.69806,-98.89608,18.5918,-43.79642,-32.16994,-54.88918,16.2622,82.78597,27.7585,60.09544,-17.4225,55.63613,-78.55195,-62.62834,-61.49892,10.36645,15.20122,69.55753,-85.70282,86.13675,83.60734,41.56443,71.9858,60.61972,22.85414,66.81213,62.01833,-56.24112,10.10123,28.45183,-48.84526,-128.8995,-31.5847,-0.2415084,-7.277523,10.30645,-139.7369,-38.5503,-81.7543,60.52998,-76.85535,46.09261,-21.38156,79.87373,-11.5894,-9.817996,13.06375,-30.69267,-28.4823,-76.11235,86.70869,-18.42739,-2.483972,-43.64918,45.5793,3.722079,5.489181,101.5699,-102.3225,22.72166,-16.94455,-114.2548,50.21965,-67.07006,-10.83488,47.46516,130.7652,74.88646,69.19234,14.7789,-28.43327,56.40826,95.67851,-183.3282,-91.95203,75.85511,45.69576,96.00415,-38.54338,-23.53484,16.99938,1.763688,81.76881,119.0079,10.70973,-85.30376,35.83986,35.90898,22.98738,-97.51712,12.59864,-26.55245,15.12191,-152.7992,-145.4513,-9.660508,39.63441,-47.33729,-248.9829,-36.58097,-15.60794,-17.47507,130.5014,92.38045,31.20719,-20.9066,44.26242,58.47552,-64.80707,51.86674,-75.41376,8.925486,-5.155195,-70.5379,-31.20869,-25.32984,20.8678,39.2736,23.23598,83.10407,79.01162,119.8631,47.10743,27.74817,72.66653,100.6787,-11.25678,-19.82208,17.01004,-6.316567,-6.733745,42.11844,63.89854,23.70948,77.09106,76.25465,-32.74469,-28.9435,47.28929,0.1075187,-169.0901,-60.3454,-12.79773,121.3426,51.35402,-10.65422,44.59489,28.32363,12.25694,-183.0999,-66.77474,73.9086,-18.76854,131.2267,16.44023,-21.31968,-10.68556,169.1646,-16.17483,-31.43759,231.9479,10.66238,42.8205,-38.24505,-84.56909,34.28355,-72.13724,-60.94617,-55.95592,-83.14393,12.54838,-81.03914,-8.030911,-14.82326,-19.99826,-70.75457,126.9157,-24.94905,-122.3589,-46.76141,14.59774,85.0829,-106.1305,9.023191,-59.0089,-21.38643,-28.9033,-5.646905,-6.2132,19.07269,-10.35091,-29.97507,-75.56148,59.72948,49.01109,-24.16371,34.44317,79.18052,86.69823,-138.5396,-91.45484,-119.2202,-2.138627,11.59666,43.65366,-150.2276,5.169481,-66.06528,69.59783,-2.567068,-116.622,131.243,-39.39655,1.515474,54.36359,-28.55734,-9.545294,-9.236126,61.06856,-34.04982,23.59422,12.90065,42.63613,84.5616,49.74928,59.91036,78.67218,-28.21072,80.46867,-82.12225,-7.413212,106.8932,-17.0302,27.90434,-88.28795,-102.7298,-1.68553,18.37391,101.1801,57.22103,-137.5533,30.46036,-47.83821,-82.32402,33.12645,26.61043,-20.07451,25.29826,-13.97216,-134.6409,39.20168,-25.93029,8.808115,-10.72986,-40.95803,13.31454,33.86549,75.92062,-53.02035,-20.47827,-6.387726,80.67896,30.39336,-16.69628,67.82781,112.763,40.89151,32.7904,-72.80643,-65.9052,57.1025,-27.52452,-33.3235,-110.4589,-47.1293,70.81225,-31.3528,36.05257,28.3301,-115.6153,71.41954,33.09108,-103.7019,-15.45847,66.76993,-145.0099,9.705161,40.96964,-37.90926,38.16195,-48.94194,-71.81536,-20.39614,46.07191,67.56409,-23.68816,13.93015,85.54369,-45.21781,9.765059,125.0593,-8.167057,-63.87304,75.45404,6.585988,-7.355376,-44.72218,-60.59237,-107.6123,-18.64255,53.93066,-92.51665,-31.25474,-1.998038,21.78635,26.11145,-36.14182,-83.6702,70.17345,95.58649,-28.75117,-74.08246,-5.835756,-48.65271,56.5974,-60.08311,67.04145,36.20694,12.44539,17.91141,51.48229,12.21042,-38.61164,42.10746,81.43877,9.074218,-38.34193,-22.48104,110.5207,-31.02683,24.95641,31.64207,-18.06153,73.68237,113.2905,31.00727,-113.3365,112.8158,-64.48103,-45.15946,-13.70819,-35.78076,11.33594,-32.11469,-3.466219,4.04474,-57.34356,-15.11073,-70.61864,48.60892,-62.00127,-12.79273,30.01601,-20.23826,81.0718,-25.70093,-3.010009,-10.06124,40.91639,51.48328,27.14795,5.949817,-45.90565,-28.7533,-6.162476,12.27452,-8.715034,76.20104,-10.93599,46.18353,-17.30374,36.50032,-9.66132,35.18084,132.445,-53.97227,-0.7177197,-19.09188,-133.2633,-48.64869,16.30871,38.34969,25.42557,-12.16827,105.567,-88.76896,-62.00594,56.79043,31.97781,42.8696,-28.17833,12.64467,-54.04545,-83.35545,47.85015,-42.75541,0.8071281,70.62952,-61.1283,23.90785,-129.1198,67.50725,-24.31112,-63.20441,2.398022,-64.70096,-33.62415,13.94677,-47.08817,-13.11324,-48.35079,0.8427224,55.55911,51.81878,61.12877,-23.83764,-5.928788,60.53874,69.55277,53.93336,22.09084,-9.467808,-120.0161,-90.70135,10.79545,-26.23646,-59.59432,9.21408,-6.225835,46.5757,-67.269,107.0058,127.8434,-2.547475,49.24465,41.17677,15.94132,83.80119,49.61074,-51.04931,58.36808,8.923563,51.65943,-18.3996,-25.22138,-2.797388,-11.00112,18.86818,45.21476,75.43788,116.5331,-0.791048,28.88127,1.191795,-119.1393,54.93772,25.12642,15.03514,-68.23299,-18.74041,68.98537,-27.19958,-23.08434,-94.70297,26.55711,65.61378,37.6407,81.9579,-82.35728,-7.444824,22.82486,-9.043809,10.88301,68.65969,-60.82972,1.537453,85.62411,8.112306,-114.6725,81.40236,-67.85076,35.87706,-53.76526,-40.26545,-45.51537,59.29895,48.50723,-34.74619,0.9968874,-73.67544,56.14314,-69.61274,32.85633,41.27626,0.1486828,96.82294,-25.97711,-7.711647,-15.77526,24.01119,-40.98888,24.12394,10.89508,53.76992,-8.506052,38.771,11.3574,22.66823,4.594488,-53.05838,-26.6257,-53.51019,-11.51238,-21.8939,51.19571,35.62274,53.06746,-12.71466,-14.97022,-38.85104,50.46591,-29.61075,-68.00808,-37.51511,-44.92239,-19.22805,17.38659,-24.37393,-61.88462,43.68221,-13.17977,-29.55228,47.83388,64.9999,30.38807,-3.577987,10.52597,-20.06042,70.66061,33.30585,38.48363,-31.45232,17.28276,-44.26702,-5.070773,-43.70936,13.67655,-6.115363,4.574308,-20.60497,17.58512,31.61195,-37.90519,19.40001,-3.579381,-3.204773,-57.02558,5.784474,-2.618121,-63.91032,78.74378,-32.03242,15.31396,84.25579,-40.38378,20.85337,46.7632,-28.73997,-96.12997,-47.38877,-53.24596,-7.437552,18.31523,-53.30766,-54.82547,97.80737,30.24054,-27.20794,-13.90779,-60.13218,37.24779,3.600545,-28.31466,3.863747,-75.43774,-100.2643,-32.60482,70.59203,-28.59033,-44.08413,-26.77469,74.52063,9.115916,11.59845,-17.0423,79.88837,115.6189,-9.189423,8.248655,34.75145,115.521,5.238982,12.39408,-5.945718,-77.26511,-40.78558,-37.52491,17.95917,-19.28633,-1.128461,50.30313,-10.51063,26.21666,18.8151,26.33138,83.68752,5.944617,12.14771,-18.77858,-52.32675,9.693435,-69.63866,-28.53778,-105.9068,-37.19706,2.849965,-52.85831,-45.73792,-5.489419,36.93539,-2.94339,24.39515,-9.958764,-35.84531,-55.03544,-27.1403,-67.58949,-36.25855,11.27005,66.91442,-40.36337,-3.101524,86.5528,40.55626,-6.565208,-57.25641,-35.96211,13.55408,-18.21377,-25.27841,-28.64128,124.9218,56.65691,-52.46984,13.77286,-38.05075,14.51953,4.551231,-15.52726,-103.4986,-9.337436,17.69035,-116.6023,14.01614,-33.35575,8.159837,58.19035,11.51204,44.82446,57.22577,25.22776,3.071495,-40.10464,60.65955,-25.1894,-8.690119,25.1444,45.82119,-90.46362,-15.42451,64.33399,6.115117,5.050628,-71.73914,51.92448,15.87952,52.87508,9.529963,11.4918,-2.199499,4.680468,-43.56284,10.1816,-11.7837,32.8452,-37.21899,-41.24052,21.65034,-31.75763,-49.40265,-39.81616,79.44994,67.47135,65.51826,0.4973743,-5.325087,-33.50744,54.33649,15.06309,50.65405,-27.0004,-2.953819,81.21804,-73.01624,49.59608,13.10192,-58.27945,26.95197,10.97587,-7.570271,-12.93426,8.165946,-39.72606,-1.723074,-19.5183,-64.10903,-38.80789,-52.77459,-13.40854,33.15302,-48.75748,58.21027,20.55514,-35.62183,-29.16779,-0.3217527,15.37308,52.98361,7.025414,-15.1569,-58.70916,-29.74403,76.68185,-11.61477,8.141244,91.23512,-23.48767,-4.662898,0.486305,5.697215,33.00735,111.5215,19.83943,25.73055,-17.96451,18.37217,32.67611,-9.984747,-34.30893,-44.74643,-2.856367,21.84568,6.283293,-39.91945,13.36936,-0.8641413,-4.647974,-64.22674,-53.99587,-10.31621,47.66591,0.2810391,-22.46361,15.89586,24.74438,62.62889,44.41363,-45.26722,14.37888,-16.16833,-16.22806,85.84099,-55.33598,-30.10542,45.43499,20.83697,-62.80716,112.4812,-8.780777,-49.67459,34.75947,-9.842944,43.02577,16.59145,-6.902315,-22.64696,-42.27853,12.15006,6.947464,-79.51223,49.36825,-24.62833,-73.88491,16.01419,42.0491,-19.2267,18.36584,14.04319,27.76356,27.2608,81.78519,12.98661,-14.83536,39.97828,46.96038,0.5155072,-4.120579,-12.72596,41.95854,14.58771,-42.37781,-56.7359,-6.205324,38.86534,-0.08257356,14.45529,-59.05055,18.3148,-70.18959,-2.956086,-36.97407,18.86991,-72.60738,-11.68624,17.18713,-74.53723,-36.07658,12.57771,-4.556898,24.64832,-77.87485,18.67557,9.690057,-72.31731,11.26313,-47.79553,-43.34898,-23.84975,36.88418,-79.56605,31.79235,40.21418,-37.75315,12.59463,13.24389,18.82773,0.8495296,-1.719361,64.44875,23.7825,38.11716,-24.03159,41.27189,67.00124,-30.46119,-14.12823,-51.41377,34.97769,38.07865,-0.6969647,-49.58389,-45.46125,-12.57781,-3.243185,-2.339675,22.0966,16.58695,-10.77707,31.3687,-42.98772,-1.462578,-29.8042,-0.07218996,-9.681554,16.46422,-55.06172,-69.33197,36.64954,38.82602,3.696842,67.7547,55.88589,-16.71151,16.19872,-19.80679,-18.88473,-57.13977,31.4634,26.64848,-63.75227,-37.15062,-25.95724,-13.65589,-5.897562,56.1375,60.00856,-30.69432,47.92633,-14.098,-42.6587,36.75363,-3.893924,80.45679,-31.45167,37.1022,23.19423,31.396,44.40935,13.61301,5.095192,54.72812,-17.61204,21.17639,-10.04127,-50.14,-22.79077,-40.69101,-12.90032,3.740957,-3.304809,-30.99265,-56.43747,-7.030721,21.97972,88.79932,64.84879,-25.98728,-19.71329,23.73358,27.46046,4.481977,-51.04919,30.3336,-84.29604,-112.1539,34.83676,-31.9808,-42.94291,-32.45199,-52.81835,29.77442,18.04604,-48.15564,-1.713862,-19.29788,-1.648156,16.5466,39.48692,-0.701507,-29.19809,-51.60878,-11.39084,-34.10166,-15.72245,-18.62639,28.92095,75.67442,-22.96279,-33.4566,-20.5998,39.19154,-14.21466,-59.38794,25.66551,-1.529239,51.53663,-44.24112,-10.18926,-21.42788,-55.66935,46.72196,-7.170885,-6.720055,-36.90483,-28.67786,-33.04461,8.655972,-8.608138,-77.04704,-11.15228,37.64107,-32.96222,23.60007,-31.68382,45.70058,16.71992,38.82444,-27.8443,-21.69745,2.685037,3.408425,40.72369,-13.12184,26.72736,-10.22025,-12.58677,5.409107,-46.52262,-27.04985,-12.78692,-13.22035,26.6372,-39.45916,22.85406,12.64067,56.39513,-10.47186,38.74569,15.27451,19.15306,1.609238,-52.39804,-27.6951,-51.35043,-10.96931,-27.83521,50.83028,35.43213,52.65472,-16.89606,-9.071455,-37.1822,52.35575,-27.81136,-67.28419,-36.20589,-42.64805,-19.36186,16.62967,-28.21274,-62.19657,41.1912,-12.21384,-31.80339,45.68744,63.85688,32.24612,-0.2541211,11.98747,-20.10998,70.44429,34.86586,39.00305,-30.20222,16.70503,-42.1569,-3.161358,-44.59486,13.4825,-2.655141,8.882934,-18.74981,17.4544,28.54735,-43.27296,20.90475,-4.474228,-0.7764602,-52.82912,7.829405,-2.34155,-63.2075,75.92227,-30.81715,13.23,84.53745,-43.49428,23.51563,46.32304,-29.22996,-98.29213,-44.83751,-49.74097,-4.908122,18.51428,-52.70268,-53.94455,98.50259,32.72052,-25.20154,-9.381349,-58.97247,36.16954,3.557901,-29.45251,0.1767379,-77.98029,-101.7585,-34.27515,68.03724,-30.14798,-45.19575,-29.32789,75.74748,9.093566,11.1711,-16.91763,81.4989,115.3893,-6.002394,5.923228,29.77686,115.8868,5.979695,14.07437,-2.940363,-79.94093,-43.4772,-36.43999,18.92557,-20.08959,-0.344872,50.65867,-9.668171,25.55046,15.8418,23.70151,79.86111,6.779961,12.65167,-22.50136,-51.38154,6.8344,-71.4029,-26.86243,-108.5569,-37.93708,3.082643,-54.31096,-45.84097,-4.493302,35.67883,2.41601,21.5411,-8.940158,-33.27274,-56.43903,-28.50799,-67.00081,-39.27393,7.253156,66.00935,-38.46294,-7.076048,88.46795,38.8478,-5.41419,-56.92066,-37.23663,12.96377,-17.2205,-28.59024,-28.20142,125.493,55.05383,-51.04444,12.91644,-38.94854,13.46076,5.360855,-14.61093,-104.3448,-9.229466,19.77914,-115.9097,15.27665,-28.53702,7.614424,57.35864,9.734509,44.79779,58.00909,30.33332,8.06731,-38.45708,56.77857,-20.65823,-7.665544,26.83531,45.22205,-90.05872,-16.18324,61.32464,6.777764,4.861442,-71.67686,52.29454,18.01423,55.53246,9.260304,5.991757,-5.302679,6.447423,-40.21565,12.16975,-12.01287,33.39325,-31.31824,-40.62675,24.48579,-31.15101,-47.32951,-40.37487,79.55364,68.37377,63.65088,3.937789,-6.420665,-31.88881,55.63783,13.26217,52.21585,-25.16204,2.455974,82.51784,-71.37763,48.6816,10.06083,-55.80505,25.97587,13.28768,-4.940791,-15.71174,7.676628,-38.42842,-0.5859458,-21.19342,-63.38187,-37.6927,-55.3449,-13.747,31.30661,-51.21978,56.48514,20.15449,-33.74365,-28.38288,-0.8092299,13.75668,50.37385,6.356632,-16.42725,-59.39955,-29.95752,76.10064,-11.47854,7.622476,92.98223,-24.87736,-1.223213,4.963931,9.289411,34.65707,113.3858,20.43416,26.90393,-17.84397,19.74939,34.91168,-12.42599,-35.3825,-46.92806,-0.9327359,18.2189,3.619965,-40.23867,17.62751,-0.6351677,-5.374532,-66.7645,-52.99145,-13.29219,46.70118,1.47133,-24.35122,11.59341,23.61628,65.55423,47.62666,-43.86878,16.27179,-16.01644,-14.04536,84.99062,-57.14711,-29.78506,47.49413,21.42034,-62.10748,116.8046,-10.25463,-51.93975,36.48049,-12.61909,43.61717,17.70709,-6.069306,-25.74711,-41.4717,11.71469,4.699194,-79.27865,48.06717,-23.17342,-72.866,16.4101,43.31538,-19.02502,20.58382,9.350521,30.33777,25.5422,83.93076,12.8223,-17.76872,41.17912,48.81959,5.619574,-3.354046,-12.74628,40.69581,14.62219,-39.21636,-55.32179,-7.166119,41.49046,0.2371472,9.335734,-62.96059,19.63601,-71.37859,-0.7858949,-36.7391,20.06025,-73.73068,-10.80543,15.05376,-71.85948,-33.55233,12.22353,-1.418534,24.32121,-79.52661,21.75652,9.022044,-73.80463,7.485266,-50.03257,-47.21762,-20.93311,35.28061,-82.58475,31.88637,39.06271,-36.86792,12.9829,15.68882,20.92337,-1.846615,-1.463737,62.30194,28.15681,39.36696,-24.20247,40.3991,66.57658,-30.58737,-13.74782,-57.08119,29.19044,43.1586,-0.2952799,-49.36285,-43.10595,-12.17686,-4.225652,0.1588167,21.8251,18.64285,-11.7382,32.17374,-43.55411,1.961269,-32.74749,0.0422567,-12.26033,15.20846,-58.40141,-67.23073,34.74166,40.70314,7.191556,67.06692,54.83179,-17.92157,16.4001,-25.17525,-15.59747,-55.51307,29.69339,26.19275,-62.31429,-32.83337,-26.88274,-11.40308,-5.188608,50.70735,60.2561,-35.31087,48.37088,-16.08371,-44.23046,32.88149,-3.937461,83.67403,-34.24884,37.61294,20.36243,26.45324,43.33305,16.45142,2.45337,52.92182,-18.96551,25.26269,-7.797438,-50.99829,-21.49759,-41.81129,-10.18735,5.076397,-8.165855,-33.62978,-55.37909,-5.813662,20.22791,88.66849,62.39838,-29.30884,-18.63273,24.49935,26.89765,4.017711,-51.28469,31.78686,-82.31636,-108.7209,31.72425,-34.69368,-39.21075,-32.56304,-53.23943,33.40689,18.53745,-48.40348,-3.893417,-19.042,-4.452714,16.66301,40.28995,-1.170359,-33.25176,-51.82557,-13.44085,-38.20827,-14.93995,-23.01434,27.90598,75.93774,-24.43138,-32.63667,-24.29293,40.6249,-17.59138,-57.04799,25.22984,-5.048969,48.18962,-45.53574,-6.088513,-21.03296,-51.94875,44.62957,-3.571994,-9.067222,-37.02983,-28.63432,-33.16646,9.738207,-9.851496,-75.96896,-7.136043,39.2504,-30.54906,21.90302,-31.21703,43.60408,18.39944,37.64915,-26.93421,-23.43737,6.071482,0.3929943,40.54343,-17.53427,26.44196,-12.61757,-11.09087,2.330317,-44.53832,-6.412908,37.84422,33.81977,10.34467,10.85757,7.860782,-46.64229,-94.07408,18.4092,-42.50674,-32.51579,-53.49645,17.90101,79.11636,29.09446,59.92956,-14.67466,56.3541,-80.39934,-61.54472,-61.23389,10.48591,13.91355,68.07689,-83.83981,88.81635,84.1963,41.37012,73.32633,58.44534,21.29757,67.83707,61.21694,-56.53652,15.31191,28.05201,-48.98713,-129.0227,-30.08785,-2.294877,-10.81851,8.094513,-141.7108,-37.73571,-79.87104,64.03915,-77.17364,48.51858,-19.26308,79.908,-9.133823,-5.522297,8.834677,-30.47996,-25.6937,-74.09515,85.91809,-17.61034,-3.578459,-40.05696,44.819,3.460165,7.55111,98.30775,-102.9524,24.98501,-16.88393,-117.3737,52.42977,-65.73397,-6.969098,45.53687,127.8444,75.1199,67.36917,15.97923,-29.6967,55.80552,94.16401,-182.2966,-92.22348,79.71674,43.20296,96.65482,-42.99154,-23.88278,15.92228,1.097953,80.90308,119.5669,6.247101,-85.30431,34.67776,36.05944,19.22028,-96.39986,11.03422,-30.22229,16.63399,-148.4939,-141.6244,-7.904351,39.9272,-46.90027,-249.4532,-34.2633,-14.61187,-15.53712,131.0608,87.7411,31.94863,-24.47278,46.6747,58.9289,-64.61021,49.53504,-74.76134,13.46644,-3.878089,-74.35346,-30.81531,-25.3277,21.88895,41.09132,26.5742,81.29143,77.2256,122.8479,48.88515,27.70682,68.80946,99.63086,-14.18488,-15.37978,19.68676,-3.780953,-6.267031,43.52303,64.34877,22.3867,77.22546,74.59411,-29.68717,-31.60935,55.66773,-1.010562,-168.1016,-58.58268,-13.64292,124.7672,52.52736,-10.8355,42.60391,28.3263,10.59966,-181.8604,-70.71582,72.60052,-16.02446,132.1802,16.0483,-20.78535,-13.49224,166.9215,-16.54453,-31.54826,231.6606,11.82585,45.69706,-39.08987,-86.22138,35.26131,-66.68346,-57.98854,-58.60878,-85.43825,12.94704,-82.5899,-9.127609,-12.71447,-22.73027,-67.41212,126.5996,-20.58129,-123.0888,-45.01844,14.22594,84.78077,-102.6984,10.72583,-56.23273,-20.73882,-31.33177,-7.648877,-3.560392,21.56126,-11.78213,-29.40827,-77.95175,63.67366,49.58238,-25.84911,35.32188,78.45098,87.33495,-139.6641,-93.21977,-120.2797,-3.979859,9.026797,43.11061,-147.5362,4.139005,-65.20869,67.3989,-0.7267011,-117.36,132.9849,-36.2331,4.889731,55.05701,-31.74536,-4.979897,-7.691972,62.333,-34.66472,21.80812,9.513248,41.20663,86.97078,54.55547,63.62892,78.92237,-28.48462,79.95001,-83.34382,-6.461279,105.9319,-19.11947,29.32502,-86.97382,-101.0416,0.2395699,23.5501,103.2583,56.92543,-138.5049,31.84205,-46.65673,-81.66302,31.62712,21.82428,-20.80858,25.95309,-21.20036,-137.2903,37.57602,-24.07242,8.720098,-9.163717,-48.55826,12.70318,33.59956,76.16676,-52.66656,-20.65694,-8.435121,77.27909,27.91493,-16.08031,67.72253,117.2822,41.31992,29.36223,-73.80524,-60.83302,51.95913,-29.11839,-33.79524,-109.7397,-45.15022,69.03719,-28.28301,34.32333,26.11614,-118.7915,70.88371,36.85655,-102.3669,-12.18457,67.66361,-145.2364,12.49091,38.27737,-40.50011,35.28784,-46.78474,-71.00719,-18.8434,41.39108,67.73566,-21.5563,15.05462,86.78739,-47.62469,11.1554,124.4862,-11.08972,-64.46416,75.06594,7.850278,-6.906827,-41.46728,-62.29504,-109.1605,-18.57676,54.10914,-89.82452,-29.5524,-0.6535428,18.08051,25.12487,-35.49976,-84.15453,65.42748,93.45334,-34.35873,-72.19504,-9.645474,-45.29348,53.87914,-60.97587,63.83105,35.23606,13.32949,18.09189,49.46347,8.216413,-36.80671,47.99473,76.5981,10.5802,-34.34713,-25.73171,109.4936,-32.28386,24.8912,32.40394,-14.10555,69.97128,118.0927,32.14632,-110.7607,109.3775,-60.27248,-45.98135,-13.10243,-33.52625,10.17086,-32.95045,-2.935865,4.641617,-53.88881,-11.88725,-70.30074,48.21377,-60.74908,-12.12944,28.33235,-19.66661,81.73373,-28.17755,-1.310043,-6.669729,39.22105,50.92311,28.07966,8.462492,-45.43548,-27.12118,-7.772048,14.04007,-7.387981,76.53971,-10.45151,49.88593,-18.17319,38.87854,-9.788623,33.79417,131.8824,-53.29295,-2.003422,-15.09356,-129.1573,-48.47635,17.39577,40.80902,26.57584,-9.198974,105.3719,-87.97872,-60.162,55.9813,32.91733,41.13218,-30.54525,12.47758,-51.90355,-80.82989,44.40518,-42.84764,-0.12277,71.67094,-58.92644,25.36264,-129.8531,67.92024,-24.72433,-60.7382,4.815894,-62.62834,-35.49999,13.47337,-44.79523,-14.43457,-48.2128,0.4884571,58.76504,50.47379,63.41957,-23.92878,-4.975284,61.6895,66.788,55.02878,19.40162,-10.18925,-122.4368,-95.34629,10.91531,-25.73069,-58.56741,10.75203,-4.384697,44.22472,-68.57111,105.0941,130.9705,-2.014469,46.01342,44.40965,17.71723,81.37747,46.1146,-47.8563,57.2347,10.09348,51.31386,-16.97814,-24.16467,0.1043112,-13.08176,22.24483,45.63348,76.23663,117.5841,-0.1631649,29.07915,1.460567,-121.2115,54.72248,26.84915,13.94342,-65.99993,-18.35921,67.74901,-28.94738,-27.92898,-97.41083,25.51727,63.54453,39.50035,85.3118,-85.63207,-5.513906,20.8609,-9.338493,7.276405,66.52212,-57.9355,6.893445,80.60081,8.170734,-115.0232,82.83082,-67.3063,36.74649,-51.24292,-43.59486,-42.60202,56.15298,46.41812,-35.13887,-0.2022598,-72.98789,57.11214,-69.23066,36.72383,42.15116,2.469288,96.18994,114.3142,-80.17143,-45.30305,-132.9535,118.2559,-96.81808,94.13907,60.10966,-11.23535,-23.36972,36.91925,63.65098,-62.08077,-25.49879,29.05552,43.79762,86.70753,-53.21047,29.43957,44.81519,-19.58465,30.90202,2.485859,-39.26927,47.222,-151.3618,22.29152,27.21388,-37.54208,-105.6176,-125.4137,-82.69321,62.37962,-6.756464,11.66622,20.9761,-38.98572,119.3112,-32.42124,3.971625,-17.56822,57.09367,131.7156,-20.82456,89.83421,-62.3241,145.772,27.00794,65.57681,-50.4135,-19.00011,43.67913,-58.60134,151.9747,0.1126208,97.09927,-100.8368,-25.14924,22.14273,123.8184,69.88905,-36.69181,-5.199346,-37.61682,-5.633525,41.77377,-13.96296,-1.112847,11.8654,92.74372,-155.1386,-28.70299,0.9341547,-33.23838,-6.626188,-22.2103,10.40912,47.55272,-61.65797,142.7917,133.882,-114.7972,-81.75323,-47.28444,-18.68315,51.57774,53.15528,-19.1001,55.04566,51.91838,98.78018,-16.61761,14.5857,67.88802,47.49836,-7.904854,-63.74557,38.1174,25.53235,126.9393,-35.51052,65.3289,-135.2614,15.00351,265.8705,76.41456,3.244028,71.62072,-67.62769,-80.57199,54.5036,-5.134798,-49.34015,-175.5997,-12.63275,-111.1677,106.8137,-93.67581,-79.46587,-106.9884,71.94229,30.90634,27.92812,79.68581,-93.69208,43.58024,-103.4326,64.45306,7.522192,-93.36478,3.654803,-107.9768,60.92584,-95.61555,-59.94978,-74.22025,54.45967,13.05484,25.46027,44.39887,31.24459,-59.59991,53.13111,-176.6358,-4.444542,9.672029,125.1403,6.000706,54.50015,-122.2441,-0.4629405,-14.71304,-42.44675,10.08655,71.84698,50.34007,-10.8012,-0.7089058,-9.500092,-217.4626,-97.03205,34.28738,103.8787,-74.95831,90.05042,20.82861,-206.1752,-78.63064,-4.070896,88.76772,26.55738,-147.1303,20.42157,-53.45015,59.2549,216.8485,109.3709,-1.560687,109.6013,74.81536,-27.28055,21.36066,-11.74623,130.238,106.9292,99.39387,-57.23535,36.84131,105.4076,-89.20168,-29.08827,33.11174,48.42019,34.4702,-14.30735,108.1071,-7.960491,129.5399,81.12862,-43.05822,18.75518,-11.44282,25.51852,-49.17489,-92.8217,95.11726,6.250864,94.7044,6.875546,5.678777,10.53418,194.3361,-62.91655,-10.34573,-93.53807,16.0989,11.4112,-91.10868,-75.53854,-41.69166,69.54723,-20.61874,-18.01362,45.10843,-127.9095,61.00535,78.25977,-18.99282,-40.60295,0.2278877,1.080126,35.12979,-174.3268,-32.96775,-35.43051,16.24725,-53.63837,-184.3881,145.5388,-82.16753,185.7247,94.12448,-23.94399,-2.885147,-55.6342,-42.39544,96.48402,-38.23696,93.8748,-123.7701,-8.057431,-37.81649,48.26593,-86.78702,-72.33513,-50.9189,-194.0568,-26.75146,44.68491,-52.15033,-9.043891,-1.020851,31.80514,-36.92104,154.5861,-16.6857,14.19543,-63.15689,-144.3289,49.33538,-163.3087,-72.0743,89.32191,-35.83881,28.21305,172.863,-80.14899,14.11237,-0.8385976,69.62787,-38.99186,-23.7669,29.06745,-26.30083,-9.750841,-5.965813,12.97636,28.89429,117.4651,-57.06116,35.55462,-31.91288,13.48449,79.67012,-25.2098,-56.81353,-30.45073,127.2812,69.80464,-26.77337,-27.6722,13.56613,-59.68463,69.01831,-52.75517,78.27962,-60.31365,-43.26583,22.14217,-136.1096,-85.99683,-34.40561,4.90209,74.86613,-9.168621,3.035612,-96.73674,102.8973,-85.74545,-2.96324,-36.79921,-15.78952,-44.43607,172.8163,-36.87912,-57.58389,117.8531,45.00115,14.98357,85.15866,80.28867,91.26706,86.58873,-88.71436,106.1551,-132.3472,140.0122,8.037344,43.28672,151.7978,-94.84758,-78.83478,114.6496,-20.74002,-7.800062,20.9483,-91.10282,185.3743,-0.2952008,-21.48971,-153.0206,-6.600105,172.7253,5.466896,57.99689,-23.30982,169.2801,60.9391,-88.35726,11.88887,14.20355,1.665247,-68.44138,-70.98458,48.78747,-48.47948,13.42367,-214.271,32.91832,109.1131,-27.18789,-36.28648,-140.1068,28.56819,79.48082,18.79201,-42.81198,0.5072202,139.4959,-9.680522,-60.87041,8.9734,-94.60889,-40.87574,24.91809,-18.00148,46.42385,-72.49429,-50.64985,119.0231,-111.3414,15.48079,-140.2362,29.83833,106.1372,-70.36426,22.40244,-158.9852,22.1423,90.86452,-98.21706,134.4951,70.40329,73.26291,33.30167,-22.27619,130.6629,-5.043762,-44.17363,4.54056,-0.9855673,-68.84249,53.73679,-39.26471,31.14973,-53.57541,53.45163,-73.57115,-80.24839,88.71138,-132.9973,6.774715,26.16302,-53.34515,-77.2011,111.238,39.12653,32.30394,26.96489,-65.00072,-20.02054,108.8874,-0.8238528,-144.9913,-70.07539,61.18477,-27.85932,-54.67788,-0.5751744,21.6056,69.66902,148.1671,88.8783,-135.8067,-1.824331,68.94891,79.74863,18.21588,57.17398,-112.4809,-12.55969,43.22357,77.5073,-37.2412,-261.8636,56.24577,15.81963,-10.33571,-56.46004,61.21171,10.03572,-153.0895,37.13028,50.10821,62.62897,-169.4572,-191.9437,64.30029,6.347772,-110.4397,53.37196,-66.06924,59.13911,39.10317,37.34197,109.5858,19.80584,-20.90697,79.89843,76.60595,101.1855,-162.3375,-29.78111,-37.4352,60.51398,37.31515,-34.58218,154.1236,80.04961,-68.70504,131.47,43.69148,55.72723,0.4713098,169.174,-107.1407,117.9665,18.6034,-21.65001,52.51368,-18.42805,-50.35834,-40.21428,82.67223,-9.65169,57.51563,-102.1151,100.4086,-44.62658,-78.89075,-26.92574,-106.3288,-127.8936,90.59812,59.53254,147.4983,-128.347,102.9438,-109.4116,-73.32323,17.07461,23.09701,-41.70496,-73.60544,67.34155,29.37243,-29.11188,-42.81536,-97.78986,64.43958,-43.14963,-54.82921,16.56118,-36.35517,-3.824938,47.15279,-56.26591,173.1098,-13.13322,-25.26082,47.97701,123.201,142.1137,95.38801,-62.12759,5.998728,-9.817267,-22.36612,40.55301,-144.3651,33.75373,-4.441526,16.62827,-63.44647,-156.5827,15.61568,-104.9889,73.74437,-162.8056,-26.47887,-71.20956,60.44875,20.72178,-49.47483,61.31092,-167.8568,-1.290243,-106.6373,117.4989,27.74083,-21.26779,-139.28,-70.04277,36.4176,8.603336,48.50682,-4.194365,-43.44549,15.54754,-9.443774,-9.023539,-106.2568,167.2544,37.78828,7.569954,44.87259,14.59939,32.57186,-11.95338,-47.59013,72.90625,-168.2132,-146.4075,128.4445,91.68084,59.82979,14.0203,-56.47738,-51.23336,23.53618,-52.75601,-42.21904,-104.9062,12.25486,-14.02568,-71.28888,-51.81969,-3.381871,65.88875,-43.49783,-23.92088,-151.0593,25.6971,-71.17345,148.9025,-22.27114,-314.0519,-85.96136,-9.047558,-75.75446,85.46149,93.69642,-58.22975,3.678639,57.3632,191.6405,11.9147,126.0774,-122.6386,104.9221,83.27481,108.8139,-82.16425,-35.8376,-24.17699,-83.60641,99.74892,-42.61989,113.6579,-54.97238,-1.96244,103.2583,1.199447,124.0811,-68.45528,101.62,65.60275,82.77251,-57.93186,-10.17578,-14.95558,-41.00499,-26.18181,71.49352,-62.02443,190.078,10.89052,-11.4408,-148.0731,-10.47838,-57.69636,138.11,2.140209,15.42286,48.26277,-5.740838,-76.95425,-69.84899,8.572192,3.666664,7.455974,243.9258,102.8627,-42.31249,-115.6096,90.69164,-102.8826,-27.34534,239.7403,89.3535,12.08895,-99.44299,-37.93864,163.0719,-26.47551,48.67055,-67.82467,-239.9918,-116.1758,-3.646171,-118.5498,-79.25115,27.37974,-32.06954,23.6276,-143.4005,-129.8284,-112.3357,62.41978,-31.75368,-121.5619,95.66222,25.04263,-41.64193,-59.26465,-34.65263,13.89068,-119.8179,9.887011,-147.5806,-93.07491,53.47405,-14.186,13.17697,-24.30605,61.42548,109.3264,-121.2969,-18.28837,-112.4714,-4.278041,-3.199105,-8.981833,-224.4529,69.17761,1.775418,108.194,-17.31308,-18.73011,112.4383,78.69693,42.06548,-68.66891,18.21572,15.90258,-51.21595,142.8699,-72.79506,-85.42448,17.93537,44.60447,4.43003,2.17632,-36.02757,197.7526,33.39824,44.46754,-25.37396,63.21294,213.8679,-155.0307,92.92554,-211.0876,-111.0448,26.18511,3.953275,72.68932,49.37733,-117.6762,44.63362,-105.2982,132.6702,12.92262,40.02554,-58.20085,95.0778,74.1317,44.68925,212.7121,22.20872,-45.47243,57.99419,8.457957,2.911298,-28.91327,42.3922,-172.4691,13.77271,-16.68597,73.41908,161.4175,-59.91099,184.1487,90.97633,-91.46293,43.26181,-39.86777,-191.1829,93.39449,-23.9716,0.6111052,-85.11478,35.20562,28.10762,-36.0311,28.07468,14.31421,-8.031723,-9.162796,-28.31146,-138.1472,62.01941,-31.85392,21.61596,-17.28631,-82.06355,29.6517,65.13856,27.55022,-146.011,-75.4635,33.73904,39.07195,-15.71503,67.40215,-63.42649,51.62405,-83.83738,74.67287,49.3739,-27.5755,149.5734,95.35697,40.67344,-8.548849,-88.23192,-0.2775176,-0.8665149,110.8031,-118.1428,90.46858,4.128504,38.54982,18.48095,47.66733,-193.6221,48.59848,68.5881,-131.3521,-52.13462,-16.87193,-95.2396,-84.27536,-103.9884,-91.02097,100.6841,-117.4589,151.1169,-147.6696,-8.742985,-50.09708,-161.0319,111.9855,89.05586,-126.4103,21.19516,11.98292,-26.96125,99.74969,-196.3893,0.9754925,29.19354,177.536,7.499218,-194.1161,3.893064,-73.06819,22.28087,-186.4525,-72.35101,97.08313,-20.47539,-16.04552,-4.961144,69.98553,77.05544,-58.5277,60.83826,-19.40273,228.4037,-38.08632,-118.1606,37.38051,34.21835,155.5285,-36.63871,-86.34515,-18.22017,56.29048,-0.7673962,-156.4316,10.9608,65.51514,-12.12157,100.9325,49.84574,-31.2215,25.55035,-50.3594,81.25855,57.92269,-123.4115,132.2789,-24.61765,151.1957,-34.62532,-125.5047,71.81992,-26.56521,175.3883,-25.90112,-92.10523,117.663,-153.1194,-83.48231,-73.37476,-29.5597,30.80568,-142.1744,1.520461,43.77876,-17.48663,0.5513161,70.98286,-56.92131,49.19393,-36.93618,61.04942,-72.7203,89.96837,86.19846,-101.6813,143.9261,-16.38021,-27.44929,60.12758,83.18766,-120.2821,-46.5626,-33.01323,-20.10344,78.66459,34.63595,-119.1603,2.800743,163.7462,79.32928,-62.99119,34.48852,63.05355,-9.407928,-28.56636,-74.20609,-165.2765,-100.7653,152.4512,0.02088743,-71.4827,-96.77477,-7.361831,-50.01364,127.4048,18.23392,-40.53387,-80.95737,49.88605,286.8274,-64.80682,-9.162807,13.92519,65.34454,-70.1459,-9.867207,170.8832,-38.29126,-50.62257,-64.83781,188.3093,218.8008,-66.96455,-5.223607,120.4071,-76.71069,80.05611,-60.03777,-38.6799,-45.51596,-121.8565,-12.41607,23.75523,-87.59801,-95.99372,-110.5329,181.7133,39.4129,49.2969,-68.53616,-38.5473,41.2827,-165.3364,-88.60583,79.33975,-148.3272,-45.21568,-54.19403,0.9140484,-194.8518,121.3997,-135.081,-15.66887,13.40953,-58.85084,11.57626,59.40495,43.49483,-93.20056,12.73672,-70.65076,113.4665,-115.718,51.87213,89.20129,28.21715,123.6138};

volatile float32_t snapshotQ[4096] = {-51.97034,19.86572,3.693925,59.37407,-62.61386,44.34938,-21.99738,22.42834,-1.801549,34.01545,1.519062,-4.768735,19.74513,-30.60501,-26.02768,-53.09744,-34.40773,-4.548112,23.52308,13.35002,42.06932,-18.64694,-11.84561,-18.91642,18.56127,22.40003,-54.21399,-35.49342,-19.12108,16.77063,48.95333,4.483507,-58.42399,32.40862,-13.22133,-27.26144,47.86233,10.03655,29.81499,-2.785104,15.36295,-33.36686,14.07268,29.2643,-0.2712159,-2.648904,-26.35814,-36.48043,-17.49839,-19.35772,13.92391,-18.11781,16.19279,-56.31254,16.32452,-1.879451,0.2192671,22.16595,-8.800705,-35.51462,-55.69098,16.40002,-1.282089,-36.47311,54.2913,-35.7313,18.63837,62.70863,-31.83157,-10.57998,78.61693,-9.369179,-70.91196,-22.29268,-34.25152,5.089532,9.825549,-52.11279,-21.81884,29.40931,-12.02175,12.3857,14.07914,-32.08289,27.91484,-10.38518,-35.91107,7.43743,-69.12517,-89.33772,-50.22575,55.55396,-21.616,-52.70213,-32.5399,53.70948,22.86141,-4.571892,-21.17808,17.20671,91.18057,-22.21991,41.7662,14.68608,7.65453,-15.11045,7.304513,-23.07208,-34.88682,-12.15955,-42.96938,13.92216,-3.840661,49.46396,42.50219,24.54023,-8.510731,38.63055,38.5649,87.19186,-18.68218,1.46028,-23.21963,-62.0937,34.42484,-62.76248,6.761883,-91.21728,-29.10311,35.34446,-36.88759,-2.474477,-21.90053,54.33847,15.47074,40.74874,-21.21894,-25.0624,-41.05611,-32.19829,-58.14896,-12.01682,-11.1643,97.16398,-22.42331,-3.569158,27.94409,29.16743,-18.88674,-9.437434,-32.09453,13.11831,-3.210213,-19.61805,-38.94649,71.1707,44.28779,-38.55455,12.61378,35.69953,34.96992,-7.12317,-41.20461,-55.15429,-31.85081,7.603757,-23.8276,31.16229,-21.8241,-21.18406,35.51662,50.14235,28.80255,58.01213,1.565032,-55.24592,-56.99178,44.61396,-48.49947,-23.67299,25.79887,23.30622,-61.0061,-46.23945,13.71762,-24.07908,19.12511,-60.23561,8.0742,38.84666,46.52344,-6.333292,-9.509583,-8.926786,8.596283,-61.72855,10.13722,-44.58008,3.172478,-11.65787,-34.09559,23.70718,-30.16937,-17.61621,-2.24033,23.87356,44.05003,21.68408,1.573623,-7.231461,-27.72847,-12.90814,29.06072,36.5392,7.128602,-7.313106,54.2602,-27.60916,58.67081,18.62263,-63.7952,25.55688,10.38967,-16.0334,29.52365,-14.17654,-47.43346,2.361035,-4.420403,-46.79756,-27.35308,-49.02595,39.52405,28.96943,-26.17107,36.83737,29.77508,29.61687,-59.56947,24.86571,-41.59096,9.919863,11.89752,-9.792484,-24.97865,-9.285694,26.77984,1.079605,-20.57806,103.2562,-12.84959,4.44355,-13.34973,30.21554,43.72287,97.46635,68.69639,24.50125,-23.30909,32.09151,31.50913,-3.953794,-29.97616,-23.22616,-47.11156,19.01876,-3.064,-11.74616,55.78012,-13.71472,41.60192,-23.00311,-63.9377,2.03843,24.37145,-48.72361,8.249037,4.159857,16.51011,26.87788,44.84766,-26.38898,3.242895,-5.374631,-9.256755,62.29706,-43.89901,-33.98084,-1.922656,34.19144,-50.58735,91.43565,-12.44842,-54.99939,32.43876,9.962172,38.27669,-22.50392,-24.34693,-11.37364,-21.90715,5.532753,20.78957,-76.35141,48.28153,-38.01324,-36.6769,28.26234,25.60317,24.98676,34.38166,20.19942,17.7941,-3.322394,61.16655,10.1331,18.75571,-3.107091,54.74216,5.236794,5.731536,-5.608468,41.30293,-35.99563,-17.60698,-23.20743,-36.25397,14.28705,-2.183445,-16.213,-64.24552,-12.10205,-75.66154,24.97255,-57.80392,53.02564,-90.4735,-7.431463,0.2806984,-94.35658,3.408421,34.32754,-35.45183,25.04431,-56.38259,7.72709,29.92797,-104.0483,9.902165,-29.70474,13.43133,-15.87026,-21.69563,-60.37793,6.124703,36.60488,-73.57812,-12.59861,35.29671,7.656393,-6.855406,-4.560502,65.04124,43.52198,14.6327,-3.518395,25.45824,105.8425,-33.58569,-39.82153,-31.70686,30.85937,68.804,-13.00099,-61.03975,-36.37408,9.683735,-2.707632,-39.51947,19.9744,31.23624,-9.055899,50.58738,-21.18937,-8.348142,-17.37037,-13.01675,12.91086,26.45386,-73.76893,-19.58169,19.08629,66.1104,-4.645534,16.31851,59.15157,-20.78699,51.44149,-25.80037,-36.71136,-8.446431,-18.12997,-2.659625,-66.96513,-32.32567,-9.48646,-47.20669,-3.487727,49.14083,43.26644,-23.69316,56.58881,-26.60635,-15.63819,16.91533,14.55671,40.89013,1.469787,52.85818,-8.264059,61.09579,27.58863,6.98823,22.21855,63.4277,-43.10221,3.718523,-16.51435,-39.63646,4.894877,-22.9378,-37.5472,4.723495,37.2792,-4.106873,-56.5313,3.307521,33.81058,65.45021,38.18018,-39.48406,-55.49739,-11.32597,60.39005,4.476961,-56.19694,-3.734984,-61.46834,-90.422,58.54478,-21.79923,-42.75744,-45.4105,-26.96306,97.60572,-4.7593,-35.95797,3.785291,3.525709,-18.21657,12.18678,72.50737,-11.21094,-35.28537,-52.46847,40.32011,28.83057,-27.65455,-16.67402,51.59582,35.49112,1.566675,-41.21606,-28.93242,16.68631,-40.74741,-42.89158,24.90731,-24.29798,13.38511,-62.12119,41.56499,-4.836155,-24.29831,15.46366,-13.50246,5.56848,-69.29069,-44.44056,-3.553603,-29.76361,-20.39108,-71.46344,-6.502846,-19.0979,4.838591,-23.53211,-26.00811,39.18914,-5.509744,29.68694,-7.766509,-5.641944,-18.06529,6.012579,11.75951,18.24466,-7.546412,0.8711305,15.83587,8.714437,-1.389575,-1.183513,-30.80085,-30.26795,1.495121,-15.88075,1.395173,35.6109,82.65064,-16.79395,43.24582,27.73035,43.99959,-12.59047,-72.96539,-27.37184,-60.78482,9.033357,-50.99827,71.64857,55.74583,56.7269,-15.65452,-15.51501,-61.37429,75.37985,-71.73201,-81.76841,-42.84768,-66.40488,-49.07011,-12.37934,-55.47292,-60.91413,52.7169,-11.78988,-26.74288,50.14622,110.4274,25.61977,-0.1657289,9.875196,-14.77157,123.3568,38.4318,72.10859,-50.91102,61.38103,-42.93557,15.80886,-71.14655,9.925751,1.907531,-6.916359,19.41368,27.61949,64.64327,-71.46819,17.88939,2.227333,30.27948,-46.60862,-1.245462,-8.068744,-91.96105,97.72289,-26.25829,18.63799,111.1353,-48.08675,54.34332,22.04527,-40.33763,-121.1887,-64.0376,-60.62967,-13.72872,27.0083,-58.11423,-85.7043,164.4468,78.52702,-65.65089,-35.79383,-86.72074,41.81186,16.87238,-19.30515,0.6207227,-80.30135,-115.7368,-14.76154,82.55527,-30.25496,-39.32207,-21.77847,93.60687,-6.144495,19.98171,-15.31073,132.5684,135.3178,4.736325,-27.79013,42.24526,215.677,27.96644,15.48632,13.57183,-117.2416,-78.41004,-35.54631,20.60984,-41.82822,-43.87625,62.20421,-40.67633,62.26671,-4.255711,9.702721,74.3416,23.99096,24.03594,-21.28716,-45.78651,-16.03944,-77.61509,-66.68143,-115.863,-45.34241,-18.71625,-66.87524,-88.08477,6.566361,22.45575,-12.09853,8.722576,5.069534,-39.98863,-63.33781,-20.62896,-74.58533,-68.07049,23.38364,40.70696,-45.91745,0.6005579,148.9347,54.6167,8.853243,-110.7106,-48.57488,8.710303,-40.54218,-28.0161,-15.55541,167.6005,64.14039,-66.37569,12.33605,-109.1449,-12.43526,17.15204,6.99158,-153.201,12.37159,28.06172,-202.1028,-7.211336,-41.34948,31.16851,78.03841,-24.80582,65.1405,57.735,49.63094,68.97569,-16.34138,76.56214,-1.09089,7.57583,25.45852,65.36142,-119.6799,10.07519,104.1727,35.98757,-11.04029,-84.56459,89.54672,-1.736094,55.28188,17.09484,23.17944,5.722363,6.946489,-23.70926,6.927736,20.07839,66.73872,-55.80373,-43.7669,29.96065,-29.75024,-72.67867,-74.28569,123.8087,80.74326,108.2737,1.932003,-8.781928,-41.36492,127.4158,1.243356,58.79184,-61.51904,-0.3420667,106.5501,-118.2757,37.21258,-0.1191764,-57.12978,32.26328,7.567444,4.866736,-49.18027,26.6079,-27.04696,-10.52639,-35.56614,-80.63213,-50.68805,-60.86973,-63.14832,29.06481,-71.88468,78.0715,9.415583,-89.67544,9.303144,-21.0885,68.9639,91.18964,3.130076,-19.59224,-91.45502,-48.85019,123.1437,-25.61548,36.27747,85.84199,-28.57592,-17.5957,15.44567,-19.46759,23.2031,129.3253,-22.70007,26.27258,-12.19963,15.23378,48.56775,-9.839903,-30.32025,-70.72838,39.74777,20.93902,6.587053,-70.59332,-18.28365,10.51232,-51.59116,-99.95766,-43.22916,-26.69423,62.79971,49.91413,-50.25296,20.12403,30.7537,96.21336,43.5301,-64.42849,26.06641,-30.08134,-26.58143,107.4214,-65.42458,-35.2947,89.83026,16.70288,-60.8685,134.7977,-14.36548,-43.23483,37.4492,-32.18427,48.09447,55.64444,13.72725,-37.82475,-58.25142,22.62669,-9.798598,-83.49873,48.81444,-15.71719,-113.3132,12.76989,61.18787,-61.51884,-3.29822,7.307371,39.77438,52.48635,103.3315,19.62053,-44.54402,75.20548,34.51297,4.075272,-15.77623,-23.44551,37.70875,69.25194,-57.58624,-84.66436,21.47078,63.74202,5.47321,37.37616,-58.31289,52.98377,-65.94752,-28.91521,-21.05353,-6.018049,-54.3674,-11.29745,31.07252,-49.8716,-70.02402,-1.101193,30.07761,24.08826,-107.3886,27.52774,-16.14528,-40.57317,15.79457,-64.45242,-96.61497,-30.71249,96.30701,-103.7944,53.31218,46.04475,-1.71672,29.69115,-2.800107,27.42129,1.045374,-4.086975,56.74683,18.91233,61.03852,-40.26765,56.46291,23.42479,-32.10114,12.8054,-75.50066,31.13651,6.802771,3.17027,-42.65119,-49.78318,-21.76342,-6.760329,33.71652,25.65655,9.897445,-10.58939,11.90495,-73.65286,5.018044,-41.99779,8.050777,-30.71172,12.59927,-42.24973,-115.6821,45.4701,7.737571,14.26942,119.436,46.85463,-16.14467,-25.24578,-25.89064,3.994806,-91.57226,78.90939,51.85764,-59.78176,-33.7832,-36.24968,21.35654,-11.87563,55.69335,77.83913,-43.91448,44.41754,-1.645254,-63.1967,52.89608,-19.86539,118.3067,-59.08979,29.38615,51.41218,7.725155,58.93487,33.20089,-5.941276,51.22966,9.959026,42.08162,-3.838838,-57.59317,-42.91191,-61.87487,15.99275,7.896997,-44.39514,-59.6464,-56.65505,-20.12208,10.5225,112.094,85.99947,-14.85683,15.79124,49.09098,0.1366323,4.720512,-48.17869,57.92567,-98.41235,-125.4254,10.73954,-43.99493,-41.0638,-17.28156,-70.38345,-28.06699,38.54893,-54.83335,-9.638178,-41.65051,15.50609,23.62494,15.10642,10.1891,-23.37956,-42.946,-60.57475,-100.6093,-3.751225,-27.48397,4.696758,108.6524,-46.42422,-25.43396,-16.34106,62.18464,10.78509,-63.19231,28.22193,18.88027,81.86466,-33.15678,-49.02596,-36.47116,-76.18824,75.16271,7.311812,-18.24549,-1.344224,-14.83061,-61.35265,49.33466,-6.139215,-84.3968,-8.361742,99.951,-72.51331,57.05619,-38.86723,51.58152,31.54225,43.9038,-54.65219,-39.31639,30.13286,-0.9955361,61.10607,-48.43305,59.91931,-31.93727,-35.81549,0.814151,-84.57187,-27.25673,56.05872,48.66827,35.49293,-4.742975,20.09079,-68.16132,-115.8896,21.23354,-44.15205,-39.95794,-68.45719,30.41559,92.47971,28.04263,60.13204,-32.45832,73.45997,-95.5106,-80.95269,-70.64439,6.155456,16.85975,83.43868,-103.1731,126.8675,93.54574,43.97355,86.44882,88.74067,46.60573,88.59439,60.8723,-57.81078,14.39037,30.13378,-49.61269,-163.5875,-31.86451,-0.4487691,-8.200376,1.25711,-185.4553,-42.11787,-113.5986,81.85038,-103.9122,50.79161,-32.44453,98.46262,-10.58358,-21.16005,19.72045,-55.06099,-28.71985,-97.46751,116.1364,-16.81972,-4.993238,-69.45824,42.66454,8.753239,7.918252,116.8941,-118.8236,26.43431,-15.7912,-132.4271,59.09644,-86.61694,10.79058,55.73655,150.2316,91.55177,81.41153,21.82611,-37.5221,55.52555,120.8872,-230.2804,-121.5805,101.8857,61.87725,116.4605,-47.1101,-34.21078,12.93308,9.565147,87.60435,130.9782,-3.491948,-98.08535,36.71334,35.67781,14.26902,-113.8381,20.70707,-36.64914,14.46102,-194.2385,-160.682,-22.31118,58.01723,-60.17253,-328.4151,-52.20013,-21.84092,-32.10168,162.1346,113.7299,28.99891,-26.23719,58.64001,92.68123,-71.0264,77.35367,-100.7941,27.72046,5.149479,-68.40262,-49.93529,-37.49271,19.80871,36.87111,38.58519,82.57282,103.7865,133.1441,55.55561,45.83237,79.63834,132.0206,-25.23926,-5.749952,33.38398,5.59378,-13.75863,47.40685,72.70042,22.90826,85.53916,94.31763,-42.31664,-5.17681,58.88357,0.3365456,-205.8966,-68.16546,-20.05362,157.9444,61.06998,-14.70988,51.9884,31.30103,5.464356,-221.4916,-78.79888,78.96909,-18.13695,180.3268,38.75156,-25.92516,-30.80664,200.8433,-39.31781,-41.68808,292.6805,26.84901,52.62126,-60.4893,-106.473,66.54922,-81.53074,-65.36092,-75.34419,-128.4507,1.388538,-91.12842,-23.82579,-27.55874,-25.72816,-79.12452,148.0488,-47.3773,-159.4654,-61.4091,24.70654,91.57747,-137.3784,20.31088,-65.63236,-30.95466,-43.73623,-9.722746,-1.646007,5.94037,-10.7557,-53.0509,-98.8653,77.26171,53.7683,-27.14098,38.92524,99.76616,111.4034,-175.4836,-108.4851,-152.9205,-4.672494,12.70574,48.80747,-195.5369,16.06542,-75.8486,94.01864,-2.287018,-131.1541,162.197,-31.36183,7.586131,55.04245,-34.61035,-6.314084,-14.83466,91.47878,-46.14327,15.39065,15.48987,56.12903,100.1363,59.4422,64.73327,112.0893,-32.29388,95.75896,-97.04613,3.029979,151.751,-40.39906,44.73964,-126.5715,-129.9561,0.2880365,24.92505,123.0593,67.02174,-175.0245,39.02586,-64.04649,-76.65417,40.05698,31.06618,-35.31724,40.78508,-10.86193,-145.3573,73.92735,-27.87891,4.061148,-3.196521,-47.64375,15.64984,31.17979,93.03191,-84.09621,-21.61895,-13.08284,97.05487,54.3358,-26.82464,102.491,145.3302,36.9304,42.42426,-88.85395,-97.93794,78.54693,-30.31187,-37.92609,-134.3117,-47.18961,78.09266,-37.79412,42.30968,32.8425,-133.3336,80.78679,34.83773,-139.3406,-7.39314,70.65925,-165.6119,9.638501,38.93209,-39.20974,50.19934,-54.00765,-101.166,-29.90499,53.15225,81.11217,-29.2543,25.9774,89.08152,-47.7859,-1.521571,151.8112,-5.172823,-81.61137,106.0132,18.44309,0.3133808,-50.88784,-84.23452,-125.4462,-23.83904,80.07453,-118.6674,-25.01188,-1.987185,25.38555,28.81106,-36.85693,-119.6416,86.87134,115.4837,-53.84464,-86.36463,-10.7464,-64.94993,49.58654,-81.41425,62.30671,48.42184,0.3451702,42.31612,37.04632,14.50859,-46.59645,28.29664,109.0911,23.84814,-57.52383,-25.39495,124.1306,-40.47676,43.05379,11.84267,-14.83774,82.66166,153.1743,38.65273,-152.2536,123.8729,-83.17435,-48.05445,-40.98175,-52.45931,27.5433,-40.37334,-7.52201,0.2181231,-56.24216,-2.208257,-86.78867,61.86927,-69.99422,18.84721,30.26288,-38.96543,95.72409,-31.179,18.9917,-14.96193,31.22593,57.62446,42.79985,7.639371,-71.56122,-27.92105,3.737185,13.0751,4.305605,92.19386,-14.28502,60.10644,-26.18149,56.64537,-0.7387707,25.1079,168.4453,-66.41496,18.48103,-24.12428,-169.9082,-44.56887,15.12948,67.34414,24.37426,-25.07664,136.1193,-125.1549,-80.01741,55.5528,33.35545,56.4669,-52.49023,10.70543,-56.18525,-98.74829,51.15137,-37.12125,-7.72272,85.96843,-69.49546,36.27918,-158.3588,93.56285,-18.83833,-82.51508,24.97678,-73.08157,-42.5974,23.07786,-37.41428,-31.95658,-58.78143,-2.973859,62.4174,71.11072,75.1933,-38.94375,-8.109439,86.64516,90.43323,55.2435,25.25138,0.5934845,-136.8259,-113.705,3.78911,-54.33091,-79.13699,32.16429,-1.496827,40.42908,-94.59412,119.8633,141.8265,14.96085,55.30047,42.47835,7.755578,101.4605,98.09921,-59.13942,65.25816,10.47462,64.53326,-29.86742,-30.71049,26.25704,-17.31188,16.22523,42.69361,113.2887,161.4166,-10.76137,30.30349,16.92081,-148.3027,74.27031,21.84528,11.86163,-82.81184,-36.084,76.06087,-26.90224,-38.95473,-124.0419,15.01271,99.27412,52.7868,102.5882,-106.9321,-18.78156,31.08737,-27.1334,2.210229,90.84708,-84.74812,-5.887043,88.16434,9.321465,-161.1897,110.4405,-97.00517,41.63825,-59.62243,-52.88351,-47.75781,74.41392,59.93914,-53.2194,1.899236,-92.48448,81.17039,-96.10448,45.89785,63.1825,7.732207,127.2542,127.3803,-88.38911,-56.19463,-143.588,127.2912,-108.0956,107.7517,73.12759,-18.04183,-25.01712,41.02287,73.2036,-67.23891,-30.22609,24.05348,44.36243,96.74239,-61.35872,41.75097,53.52983,-12.95167,29.25032,1.330787,-45.57122,60.1969,-168.5589,15.82922,26.1459,-47.52355,-118.2884,-140.3465,-94.02956,60.56948,-5.943269,14.91468,22.09211,-42.00119,141.8247,-33.60159,2.274009,-18.14579,60.89066,150.8443,-14.10068,103.485,-70.31314,154.2577,27.43255,74.08444,-60.23118,-20.44715,48.63096,-61.91368,162.6854,4.395352,106.9004,-110.43,-23.33081,24.01433,136.3293,70.7254,-36.85091,-8.714608,-50.13857,1.015295,40.75581,-14.64212,7.626459,11.56743,107.2707,-165.9226,-34.09164,-7.328995,-40.69123,-14.88184,-31.83039,13.03237,46.27436,-74.29889,168.8367,147.8373,-128.9846,-89.67369,-54.00516,-16.3107,56.63382,56.93737,-19.33976,53.40715,43.59733,105.7038,-13.80779,13.20151,71.4289,54.43591,-0.8414385,-70.62408,44.91721,23.41648,146.1818,-26.23899,71.88284,-147.8117,21.09042,305.7704,89.14285,5.35131,78.95374,-80.64197,-95.96156,53.59922,-4.042807,-55.3619,-189.7715,-12.81027,-123.5333,122.0343,-104.8688,-86.5149,-111.1217,80.48392,33.81015,26.05684,82.89858,-100.886,41.6407,-112.3824,55.82451,5.675258,-99.28584,-5.820133,-124.525,66.41814,-98.95112,-63.30755,-79.69928,58.53583,10.57816,21.45219,46.83206,29.19086,-72.23452,62.31296,-186.3763,-15.07967,14.62337,145.9388,11.88903,59.66543,-139.856,-0.4680162,-15.57236,-46.78581,11.40381,78.43533,67.55547,-8.410524,-5.258664,-9.051766,-242.292,-106.7499,40.57135,112.2941,-91.80665,98.08906,26.46081,-232.3531,-87.94827,-10.73192,96.71383,34.58582,-156.7081,24.67615,-48.68168,67.00905,238,117.3123,2.380233,115.8692,78.10184,-26.62923,26.64609,-18.43033,140.7732,126.8608,111.8394,-61.57824,28.35762,117.5745,-94.4196,-29.11422,38.44287,53.28914,39.02539,-13.3251,113.3111,-8.472365,143.7623,90.7172,-52.95598,14.82476,-8.240993,24.43515,-59.16175,-102.6579,111.8428,15.06771,108.9544,6.425407,3.092448,7.853461,219.5956,-70.40536,-3.224068,-104.5841,15.8102,20.65443,-110.2283,-80.77557,-43.53465,65.87046,-18.26389,-19.19891,50.50465,-141.2378,69.87122,83.49826,-23.51419,-47.45422,-5.56374,-3.415497,35.15208,-195.6477,-34.46219,-39.79953,20.57384,-61.86741,-203.9197,156.9785,-88.70198,206.986,108.0263,-26.28706,-2.546708,-70.96929,-50.71186,113.9897,-46.08709,103.111,-131.3475,-11.8717,-41.43335,55.2371,-96.95232,-77.64616,-41.26232,-208.3606,-24.10559,44.29206,-57.50257,-9.971978,-2.954695,30.45888,-44.39433,169.7835,-16.65317,15.29942,-69.77058,-161.5965,57.12127,-181.5676,-87.82087,92.04346,-44.58402,38.07707,192.2951,-92.35827,21.33003,2.691442,84.06409,-41.50322,-29.14633,35.53412,-33.2699,-13.43605,6.699577,4.703215,27.20451,134.3996,-59.03745,32.56212,-24.32645,16.75018,81.0106,-26.81025,-68.28832,-29.28179,145.5364,79.56803,-33.3348,-35.93601,17.09686,-65.21699,66.10244,-50.39866,81.87738,-71.47353,-46.01396,24.44272,-150.364,-95.18233,-35.56342,8.905798,84.02293,-1.01693,2.070719,-107.4581,113.4713,-93.34435,-6.663016,-42.78494,-19.00119,-48.11938,193.3152,-44.86757,-67.74059,128.3954,52.46391,15.94789,90.91031,82.68993,105.3451,92.80907,-100.4795,113.7959,-143.8307,147.8646,9.599751,49.88664,160.9336,-108.6673,-83.76049,126.6296,-20.11224,-13.85635,24.3874,-99.09231,195.2128,2.259253,-28.0761,-172.3141,-3.313244,190.0896,-1.546805,72.39282,-21.36613,181.142,70.85617,-94.93983,19.86427,16.89636,1.609012,-69.03552,-75.94001,59.86362,-57.53805,17.17562,-232.5314,35.98957,117.2339,-33.06897,-32.78402,-156.2383,35.12122,81.75202,16.37642,-52.6474,-1.671384,152.2648,-7.284107,-62.43076,12.91447,-102.3282,-48.17162,30.4929,-22.09483,53.68207,-80.00965,-54.77747,121.1342,-129.165,20.54878,-150.1287,36.46531,125.7259,-75.28512,25.35042,-175.4279,24.82628,96.10154,-117.3015,152.579,81.70893,78.69498,29.00504,-25.11333,139.0006,-6.892198,-44.25576,13.00004,-0.9643753,-66.44437,55.06752,-46.3394,38.42455,-59.57445,68.88172,-86.79189,-84.51689,102.4385,-143.8105,13.29827,29.95706,-61.10831,-79.96548,119.7287,43.0635,32.55806,26.14098,-75.97525,-26.4622,121.6009,-1.621424,-161.4059,-80.98616,64.19204,-33.15062,-59.54847,7.021334,29.39525,73.31091,162.8377,100.6464,-146.0703,-0.7597815,68.27248,92.32499,11.51858,52.57634,-126.6798,-16.27868,42.83822,82.95293,-46.95168,-280.712,66.05093,11.39562,-12.83389,-62.28436,68.11965,11.95813,-167.8759,39.93002,55.85538,64.52882,-182.4127,-216.1838,67.93348,5.985188,-118.965,73.02682,-79.56862,62.21255,37.49144,42.65026,120.4857,11.23552,-22.50159,88.03812,91.50826,108.3065,-180.1452,-36.18024,-43.21769,65.92986,37.3733,-41.23055,169.1964,87.21737,-79.72465,147.9178,45.34954,52.10513,0.1087058,194.7315,-120.624,130.5144,12.90247,-15.20965,56.36831,-14.28645,-61.67185,-43.59251,91.60577,-15.10994,65.04581,-110.4774,114.3193,-52.9072,-87.05329,-27.39726,-120.3764,-127.5757,88.24567,56.17959,145.1813,-129.7352,103.5695,-102.0149,-71.36702,21.95723,23.29,-44.06547,-74.71074,64.09274,33.36273,-27.09376,-40.30341,-95.05592,59.38214,-43.85489,-50.77738,16.47526,-28.60801,-3.630831,44.62794,-58.47088,165.96,-17.33973,-24.80091,45.64806,120.344,137.7602,94.70496,-58.99066,5.728667,-13.48294,-25.97553,42.29128,-140.5122,31.31478,-2.778708,19.10757,-62.3173,-154.9966,17.15952,-102.7459,69.29871,-156.0417,-27.73108,-72.71843,59.31024,19.54845,-47.5122,63.15391,-165.5947,-1.496677,-107.5296,111.0518,23.83082,-20.93286,-137.6303,-71.58813,36.08323,9.87626,44.40005,-2.348851,-43.99371,12.98817,-8.838634,-11.60515,-106.1684,165.134,33.15439,9.373585,43.35848,15.61718,31.67609,-15.80869,-46.03837,71.74255,-170.6961,-149.0887,129.9955,89.26073,61.00714,13.00862,-56.2447,-54.36779,23.27847,-52.95949,-44.05439,-101.3493,12.22167,-12.27463,-67.84776,-50.47408,-1.495649,68.11581,-41.8095,-23.17207,-146.7332,26.06366,-69.83077,149.1542,-17.46853,-305.442,-87.64912,-3.815214,-77.0745,84.69006,94.66475,-55.21466,0.5127117,57.16687,187.111,9.956794,123.8811,-122.8895,104.532,87.33482,110.3335,-80.49129,-33.77427,-25.63287,-82.19982,101.6168,-38.91889,113.4691,-58.89497,-5.644124,100.7013,-0.06129681,123.4944,-65.99101,102.5584,66.34361,78.58787,-60.14353,-10.55097,-18.57456,-38.34525,-26.31328,72.56924,-60.16875,186.2558,10.26194,-10.84579,-142.7705,-6.776047,-55.5047,137.4006,1.604302,14.77228,49.15206,-6.813401,-74.77185,-65.57072,7.26054,1.829466,9.124001,242.5862,105.6692,-38.23589,-110.5742,92.33468,-99.39922,-24.78979,236.0883,88.40488,11.25582,-97.46249,-36.05222,159.8544,-26.08642,52.55503,-67.65821,-237.713,-114.551,-0.05463873,-118.914,-79.70602,30.27674,-29.85018,21.7077,-142.317,-124.4555,-110.4126,61.22234,-33.02188,-114.9058,95.22165,25.97993,-38.87531,-55.09871,-36.02013,11.97446,-116.6295,9.041971,-141.3708,-89.03924,48.71317,-16.51538,11.51155,-26.82854,58.81236,103.0293,-112.6488,-13.78538,-108.7276,-4.861432,-2.976562,-7.576416,-219.4129,68.87796,3.427146,105.6212,-17.27854,-17.07866,110.8711,79.39639,43.08509,-69.62634,17.47281,19.61124,-47.96322,141.002,-71.15615,-83.20564,19.26223,47.4753,5.186446,4.266329,-33.75496,193.7574,37.25435,42.45922,-24.83249,60.49027,204.4953,-158.5491,90.24121,-206.2971,-108.2995,26.30153,4.696569,72.25706,50.45193,-111.4205,42.35123,-103.4979,134.5663,8.747158,40.62667,-57.17289,91.07244,76.16201,41.16286,206.3164,23.67356,-45.6455,54.35052,6.714141,0.904985,-33.57197,44.15026,-172.6304,14.50894,-16.11018,72.24956,162.1251,-59.06938,184.5489,83.96386,-90.51508,45.13435,-36.82596,-189.4559,91.57916,-17.12589,-0.04065047,-81.34312,38.63895,32.46551,-34.57474,26.14789,15.89816,-4.681878,-5.95697,-24.55626,-133.4633,57.45835,-34.95065,23.45662,-17.78499,-80.38622,27.5452,63.54522,27.93789,-143.6891,-79.44701,33.58525,33.09996,-16.31613,63.90308,-65.92881,50.29453,-83.72863,76.82169,45.67738,-27.50625,146.9854,92.70816,37.29935,-6.638075,-82.02011,1.097167,-3.268664,109.1038,-114.7793,93.97161,3.251775,41.56057,19.15594,47.16377,-191.2398,45.17942,65.45333,-129.0217,-55.39553,-14.76359,-92.87186,-83.24563,-106.2328,-88.48853,99.28507,-115.1621,143.916,-145.6111,-9.874472,-46.36359,-158.4308,106.4078,83.84573,-126.9975,19.11151,15.80944,-26.73625,102.1458,-193.955,1.746341,27.60159,170.7634,6.576282,-188.8348,0.3869488,-68.81337,22.57089,-181.8989,-68.72621,96.93069,-16.52864,-15.37129,-5.291632,67.91325,74.83891,-57.4595,58.40303,-16.37265,228.7304,-35.16265,-118.788,32.81186,34.23072,154.4761,-31.42292,-85.55261,-15.01539,50.57215,3.02292,-150.8002,9.702649,61.07995,-11.46309,98.81049,48.08366,-29.67027,21.65267,-51.0999,78.44499,55.67736,-121.1496,124.6247,-20.99055,152.7784,-34.01717,-123.3416,73.58086,-24.81049,174.675,-24.98852,-94.13714,112.9863,-151.1212,-83.24002,-75.95278,-34.29959,25.61958,-142.9501,4.618447,42.24778,-14.64373,3.859077,72.13802,-55.90417,47.99495,-36.3686,57.12562,-69.23719,89.27145,79.35811,-99.27388,143.1477,-15.26293,-29.43231,58.54309,82.27445,-118.9512,-47.05307,-33.5153,-25.97448,72.64371,28.9316,-119.4999,-0.5314185,159.1599,80.56456,-65.25589,32.2382,61.11616,-8.226757,-28.08166,-74.98715,-161.1073,-98.70351,145.4706,1.490359,-68.35316,-89.46567,-10.8368,-51.8875,122.5798,15.02851,-42.87423,-83.85444,46.46252,283.2474,-64.39868,-8.856052,15.4032,67.38622,-69.24252,-11.85295,162.0978,-39.38901,-52.38468,-63.97671,183.1124,213.5717,-69.59193,-3.075357,116.9465,-73.37027,77.54919,-58.90773,-42.3614,-46.28328,-121.1224,-16.45678,19.67585,-87.83826,-90.62633,-111.5768,179.2532,34.48428,45.9264,-70.46312,-41.88626,37.77723,-166.7386,-89.65857,79.11324,-145.4058,-45.42395,-54.47306,-0.02396244,-192.2413,123.3376,-134.4618,-14.9661,17.93471,-57.0183,16.77938,59.49286,43.57446,-92.59418,11.70334,-70.26289,111.0785,-115.0157,47.19932,87.00469,25.09479,122.0802,23.68741,-57.42404,-51.1714,-37.21775,2.058436,-18.18867,67.15565,117.5824,-22.22968,45.42583,40.60202,69.31964,-29.04194,-95.20506,-28.79557,-59.46965,32.49834,-69.7701,96.48841,80.85683,70.53896,-8.848683,-16.04219,-82.91737,104.8175,-126.2637,-95.86088,-39.90092,-88.67242,-88.04652,-46.28749,-87.67526,-62.7167,59.95246,-13.29179,-34.36243,47.07424,165.3734,32.62638,-0.6196317,9.011949,-3.304818,182.3369,42.15086,108.8831,-79.23289,108.2887,-49.39193,33.64608,-98.37126,12.1882,15.07463,-19.3529,56.39681,28.42817,100.3978,-118.8536,17.85465,3.327636,65.67199,-44.81251,-6.170453,-10.47094,-116.9215,117.7,-26.74163,21.8659,132.7985,-57.05908,86.06781,-12.80377,-61.4717,-153.4118,-89.92327,-80.43864,-21.8488,34.1334,-55.54327,-118.7161,231.5165,123.2367,-109.3632,-64.50598,-117.2715,45.7865,33.54789,-12.87122,-5.783735,-85.78999,-129.9657,2.322413,97.31152,-34.01058,-35.39862,-13.98887,113.1648,-20.45975,38.72006,-11.15979,193.8417,159.3235,22.91632,-63.03125,58.02225,329.8297,51.46644,21.28021,29.60777,-163.5141,-113.822,-25.91878,27.80889,-59.43296,-93.72826,74.19339,-77.21983,100.1587,-23.3427,-2.274261,70.26485,52.55801,37.20484,-19.44926,-33.61964,-38.6429,-86.49448,-102.5893,-130.3906,-53.45208,-45.15406,-81.79469,-129.2471,23.3048,4.571238,-32.29737,-6.147732,14.35504,-48.65923,-72.43239,-20.44914,-86.58204,-94.21259,41.68665,5.804278,-63.50487,0.2551057,207.6357,65.34751,21.42657,-157.8021,-59.04702,10.52087,-53.9713,-35.35824,-7.316382,219.1562,80.24308,-80.88163,16.30079,-178.059,-31.76328,28.78611,33.95773,-204.0068,36.42047,40.41766,-290.3776,-24.31117,-51.15483,57.85054,103.1433,-64.11288,83.26012,63.83867,77.48735,124.8588,1.312568,91.17,26.03173,26.68282,21.71681,80.60844,-147.2301,45.87659,156.7669,63.17172,-24.31357,-90.86835,134.3868,-21.53617,65.6195,28.6333,43.49873,12.31668,3.071513,-5.763247,11.76446,50.59411,95.0324,-78.71761,-52.47346,26.71058,-37.04172,-101.2633,-116.5563,174.4749,107.4138,153.3178,4.225525,-7.665625,-46.08041,198.8254,-17.00848,73.43486,-93.02216,6.226268,131.1914,-164.0873,34.48415,-7.390106,-51.56537,36.68046,6.584641,14.68873,-87.8139,42.56847,-12.77669,-14.84389,-54.71101,-98.17094,-57.81745,-63.45897,-114.6743,29.02503,-95.98158,96.59501,-2.71609,-154.3031,37.61059,-46.71897,123.839,131.0759,0.9134486,-25.79057,-120.0859,-68.15102,172.6102,-41.4918,64.93115,74.73315,-37.49621,-29.53753,31.16564,-41.07471,12.83738,146.298,-73.40394,28.34555,-5.481082,1.609133,50.41986,-15.97538,-33.67659,-94.12914,83.19795,23.02781,12.70412,-97.35054,-56.28101,29.71756,-102.0153,-141.433,-36.45668,-39.31219,89.21987,97.47804,-80.52419,32.07632,42.83284,136.3244,49.74841,-79.61639,40.61747,-42.99177,-29.51313,134.0599,-81.52985,-32.84321,138.5709,5.626847,-73.91261,161.4707,-8.458211,-38.82328,40.63448,-50.69746,52.57079,99.57466,33.18365,-54.15483,-80.85816,27.11642,-25.2509,-89.07637,46.20899,4.626514,-149.2442,2.249779,76.46309,-104.632,-21.83006,-0.9085863,50.06509,85.0405,125.1073,23.99366,-76.82937,116.8341,24.61189,3.494831,-27.86992,-27.93579,33.71638,121.4571,-82.78179,-116.0678,57.56264,85.61074,8.406721,67.4031,-52.5068,84.78069,-67.12219,-52.43867,3.383429,-42.6367,-36.7353,-13.72332,52.62078,-29.89443,-106.3741,-25.30311,54.22606,25.82441,-125.9813,41.91297,-40.91849,-9.174798,17.82917,-84.47392,-155.2263,-36.98401,151.9011,-123.9358,84.16006,50.58464,37.66367,50.94812,-27.63646,39.15246,5.735322,-2.44184,60.15006,4.735911,89.26762,-61.49974,70.70109,-17.14004,-29.15986,41.45976,-100.2169,29.22824,-17.19089,13.31359,-33.35687,-60.68771,-39.67346,-8.358716,74.48979,29.82985,-4.611631,-13.26572,-6.004938,-93.58943,17.07738,-63.51968,27.73421,-55.93884,1.855959,-23.82915,-166.4557,64.69419,-20.01725,22.17273,164.8923,43.22358,-15.9499,-65.63725,-26.45207,19.29981,-137.3154,123.4493,81.55808,-54.78601,-31.9839,-55.16482,50.69643,-11.98686,58.96488,98.92531,-50.51888,38.72175,8.077067,-86.83923,74.3299,-33.55616,159.8332,-92.74577,16.67346,82.76307,-25.09725,73.86008,41.83435,-24.36363,42.19144,32.78925,60.71134,2.92225,-64.14159,-70.86905,-76.40317,44.05864,6.523248,-88.40781,-87.66198,-54.1503,-28.3985,1.196909,134.2329,106.9303,-0.6253931,54.64828,79.69772,-35.83765,3.516077,-41.01759,94.37762,-122.1794,-142.973,-15.43538,-55.035,-42.81143,-11.16129,-104.0256,-97.25571,60.54945,-63.17182,-10.68764,-63.2482,29.63644,28.86116,-20.97031,17.92924,-18.55715,-46.03252,-114.0431,-162.6329,13.52572,-32.34257,-17.26633,149.1127,-76.93262,-20.32594,-13.06531,81.35029,38.45746,-76.78641,24.41592,38.94412,127.8966,-15.26744,-100.8707,-50.85519,-100.1859,103.6893,12.78397,-32.16645,30.18114,-1.301051,-91.26516,89.15446,5.903087,-85.23302,-12.6111,157.7693,-111.7327,96.92918,-40.26185,59.41121,52.07489,50.92752,-75.40464,-62.58103,52.55902,-2.764545,93.71875,-80.47327,93.96922,-44.00215,-61.63321,-8.765689,-125.1043,1.813367,27.255,27.57133,2.313144,14.38375,-0.726901,-37.4238,-81.20759,16.37814,-41.8867,-25.4543,-44.49252,11.19662,75.36028,25.88024,55.07605,-8.625046,47.98636,-71.28673,-54.29773,-58.58985,13.89919,15.48462,60.45792,-75.58335,73.6138,79.56424,40.53295,64.09445,52.75118,10.64355,54.99271,58.82383,-50.56996,8.069523,29.443,-48.11406,-110.6079,-28.63814,3.982786,-8.046686,13.21617,-125.2583,-36.85457,-70.48793,53.32115,-64.25115,43.11702,-16.25224,74.7998,-11.47833,-3.04971,8.265239,-20.70426,-24.52612,-64.91729,74.40337,-19.84039,1.628791,-30.71799,49.14589,1.56964,7.414208,91.77487,-98.39997,25.23775,-19.39359,-109.1702,46.87524,-57.66996,-18.65714,42.66014,120.7872,66.4748,63.42417,11.4404,-30.33887,56.42522,87.20135,-162.1289,-79.43391,67.26727,37.63685,91.18364,-38.18039,-20.69913,18.79306,-1.018319,81.24449,111.8752,10.73396,-84.35884,31.83795,42.32169,21.3183,-92.61504,6.486021,-24.72065,15.006,-130.2254,-135.1138,-3.078572,27.54998,-40.72224,-215.5023,-23.61001,-15.28595,-13.16141,118.1762,78.03104,34.62203,-20.61663,40.82143,43.4382,-61.02073,43.52307,-66.1655,7.169328,-8.550859,-72.51987,-27.50356,-20.86299,26.46163,45.1102,13.80396,78.47704,66.79462,115.9272,45.7646,19.15187,66.87453,88.70725,-7.944889,-22.59233,16.10312,-10.51929,-0.7554361,38.84262,62.40436,22.3376,71.74682,64.48205,-21.06772,-38.53867,47.03731,1.932673,-147.3522,-51.875,-12.57938,107.2899,51.1345,-10.90841,38.04101,28.07805,15.35751,-168.6662,-66.38522,67.73644,-13.98555,107.919,11.51085,-13.44753,-4.935171,153.4174,-9.098883,-26.06267,198.8294,3.861198,39.99729,-29.95152,-78.30292,24.34963,-66.43281,-56.73425,-49.69725,-65.61127,20.86941,-79.55845,-0.2514228,-5.526879,-23.34266,-64.52083,119.0976,-12.1672,-106.1494,-36.45665,5.747829,82.8099,-93.16343,-0.972028,-54.78075,-15.40038,-22.29787,-6.917823,-7.474846,24.93888,-9.065085,-18.03393,-68.05804,52.18482,47.34704,-27.4338,34.56161,69.96986,74.00776,-123.449,-83.46222,-108.5293,-1.868872,10.35887,40.17569,-127.4227,-1.327216,-58.13185,60.95922,-2.53348,-113.0187,117.1687,-36.79125,0.1879658,57.88472,-28.59777,-6.582259,-6.302165,48.86219,-26.39021,26.86481,10.26125,39.62987,79.62653,50.48946,58.97808,61.73126,-30.08937,75.04476,-80.17252,-8.44214,89.73631,-4.710375,24.94805,-70.70605,-88.32594,-5.956597,21.87085,91.00162,50.18498,-122.2031,27.11181,-36.21246,-85.89355,30.06181,20.1838,-13.4622,18.00839,-22.13628,-130.8947,22.53892,-24.82259,13.08646,-16.3614,-45.76946,9.752698,33.32088,70.48057,-38.66403,-21.27729,-5.221957,68.8867,21.71731,-11.05186,52.48726,102.0382,44.2865,26.13315,-64.31826,-48.80968,46.60932,-21.60294,-30.45633,-97.25004,-44.0193,67.30714,-26.47973,29.58061,23.26708,-110.6563,73.20732,34.47167,-90.93695,-19.9549,65.09872,-138.7183,9.338211,44.83318,-42.53899,28.59994,-47.14102,-58.908,-16.10244,39.56117,59.2984,-18.776,6.255181,84.03489,-48.74972,17.91013,108.5277,-11.0911,-59.74083,62.21749,2.590677,-4.789177,-38.86963,-55.60871,-102.294,-20.33214,44.82555,-78.65175,-34.83672,-0.8298956,15.46779,25.92544,-38.14416,-68.65293,60.81439,87.2796,-23.52923,-64.12904,-8.248785,-37.28616,55.72214,-51.43562,66.59156,29.63748,19.19383,7.533748,55.15029,12.22682,-31.11063,50.34833,67.72882,2.909803,-23.80582,-22.36455,105.5092,-27.55533,19.31482,41.3107,-19.29202,59.9541,97.9397,28.21895,-95.20727,100.7829,-51.94503,-43.25481,2.312106,-28.21037,6.015379,-26.12191,-0.03595529,1.115653,-55.68027,-18.45108,-62.55502,38.37077,-56.93801,-23.8823,29.53675,-9.570686,73.51448,-29.81931,-7.337886,-4.67946,41.85924,50.37737,23.22072,8.33589,-30.32035,-25.47445,-10.53652,12.38315,-14.6312,67.9501,-8.474541,42.3095,-14.94621,28.47891,-10.48408,41.39698,117.1109,-49.94905,-7.855082,-13.14076,-117.598,-51.04446,17.54763,26.34616,27.32894,-4.815945,88.12388,-75.63914,-50.78836,58.18876,32.08912,39.92161,-19.76459,15.14123,-51.80027,-76.44469,46.23251,-46.03885,4.194424,63.52087,-55.08815,23.431,-115.1934,60.39425,-29.85167,-51.76122,-9.055752,-60.76181,-30.59268,8.787787,-48.04359,-7.983063,-43.99287,1.547466,54.19252,40.74148,56.3208,-18.01613,-6.481325,47.11377,61.43291,56.9878,15.69283,-17.24435,-109.6582,-86.57458,12.87934,-14.56418,-47.85207,1.218639,-5.593309,46.20954,-60.34887,98.13634,124.0028,-11.50495,43.34629,40.09335,15.96374,73.41569,31.82226,-38.45384,51.27011,8.327085,43.18336,-15.71224,-23.39112,-10.71887,-5.299149,20.51809,44.26069,61.4375,98.16411,3.508458,23.30476,-5.835841,-107.0653,47.13324,23.63466,19.88744,-62.09811,-9.040857,65.06621,-24.48189,-18.48374,-84.03557,30.18397,51.67206,33.84905,73.60806,-75.43666,-5.514326,16.27838,-1.137598,13.56079,60.69102,-52.31606,4.514812,80.40426,8.019301,-97.7243,72.34033,-55.34342,39.77847,-50.45077,-30.98176,-40.90452,51.04242,45.06631,-29.1743,-0.9611336,-63.6528,50.39719,-61.41922,27.56949,33.95289,-1.832139,84.60002,54.03716,-17.47206,-5.129959,-57.70654,62.95012,-44.64835,19.61796,-22.20008,1.362381,-35.48447,-0.2298568,1.493558,-18.9182,28.81155,25.64373,54.06136,32.18262,4.019126,-27.35221,-13.81035,-38.19582,21.49905,8.882499,19.88776,-22.87074,-22.12382,55.5988,34.39527,18.98717,-13.71131,-51.37468,-5.37191,61.4815,-31.12102,10.38384,28.8516,-49.29127,-11.41759,-30.33734,1.485301,-14.75754,31.80172,-13.02706,-29.70796,1.822047,2.737203,26.4677,35.53448,22.5442,17.93526,-14.21423,14.32126,-18.68927,51.2458,-13.44534,3.941119,-0.7446839,-20.27387,6.698209,36.18801,60.15119,-13.36723,0.7417662,34.83675,-57.75205,35.01352,-15.4065,-62.91544,32.74368,10.85681,-79.47719,11.21731,68.8283,23.69075,33.34617,-3.611297,-12.77618,51.11183,21.39149,-28.14724,13.59196,-14.31818,-12.47537,27.62543,-28.93544,10.86011,32.14356,-10.44266,70.56438,86.32806,49.56586,-54.94518,23.33756,52.10888,29.1342,-53.53432,-24.58035,4.073658,18.90227,-19.96983,-92.04513,24.94731,-40.26029,-17.07107,-6.007646,18.35518,-5.237973,23.1311,36.11548,10.89641,42.22236,-13.25532,1.233073,-47.55552,-40.92699,-22.66547,10.16195,-38.76887,-39.80925,-87.43281,18.87859,3.581481,26.46311,61.54831,-32.54664,65.09399,-3.343602,92.46828,31.9622,-30.52579,39.68111,1.512684,22.46848,-51.6333,-16.08634,-34.61802,21.86205,29.92616,45.478,32.13126,55.18378,10.62638,11.99714,-97.54956,22.586,4.784318,-29.32447,-27.65319,15.85157,7.64829,28.63183,-9.205094,3.520297,19.27068,40.46102,-72.74538,-44.39803,32.99184,-12.15249,-33.90265,-35.60567,8.035041,43.97143,54.13569,32.14955,-6.528054,24.44571,-32.60065,19.37129,18.4186,-34.57179,-47.90327,-29.84909,-56.06824,-2.581444,56.24868,55.60254,-44.47294,43.09343,25.95625,-24.53246,-27.18216,64.46291,49.60706,-11.94555,22.37476,-20.30105,62.93705,-5.729391,-34.55053,-43.89759,4.951014,6.880929,11.87426,-8.685017,59.78168,-11.06532,45.99869,-5.83773,15.33795,34.22966,-20.44234,28.75384,17.25516,2.03133,-27.66618,-46.49345,-21.84544,-1.014818,7.787994,27.13762,13.30472,-27.36748,-38.71656,-6.292097,3.849477,-57.91468,23.07655,-55.89874,-16.32373,61.73763,-24.4611,-13.44086,13.96199,-30.43856,11.10113,47.34356,-2.991811,3.240262,45.41805,29.16736,50.59248,-41.87483,-29.76834,25.18578,-37.20448,-29.02946,-30.14001,58.64505,-23.0966,42.2015,-10.47322,-13.38568,10.3694,27.43239,11.0346,-25.48643,-1.878667,22.26771,-105.3089,15.62782,-4.931654,14.65206,-25.94207,-43.01607,-94.04047,-71.64222,-22.22195,27.87889,-28.30177,-28.50445,5.033991,32.85588,22.67472,45.70222,-21.4488,2.384171,10.81552,-51.37643,16.7926,-42.44179,24.5085,63.28305,1.387862,-24.99982,48.45941,-6.390289,-5.328872,-16.85761,-25.21721,-41.71972,26.69898,-5.630786,5.331862,9.247358,-60.51069,44.10389,29.47831,5.017656,-36.49266,54.57297,-90.61094,13.77512,58.06762,-34.47099,-6.142192,-37.94162,23.52999,23.93922,4.375186,21.47346,-6.261652,-21.07602,74.87498,-48.06158,39.91775,35.56464,-23.93333,-25.53346,-20.43009,-38.65071,-19.10099,-20.92704,1.791306,-63.53348,-12.25461,-18.80938,0.787553,-56.84429,-3.376301,-4.571143,4.779381,-38.84107,35.62457,19.58739,23.25443,39.12984,-14.5416,2.368074,16.40202,69.09018,10.68881,79.2429,-21.94585,55.68501,-53.35817,93.35468,12.47034,-0.0927315,92.89457,-4.07269,-31.41361,32.40972,-23.13693,56.93542,-7.636266,-30.19821,104.6502,-8.132225,26.22127,-10.61145,15.22777,21.461,63.02448,-2.818902,-35.61297,73.32822,13.42194,-34.7812,-10.913,4.074141,0.6896457,-61.96831,-39.94336,-11.73333,1.039074,-27.85416,-105.2581,29.94493,41.3121,31.23866,-30.99076,-68.34237,10.162,56.22957,37.13346,-7.546015,4.044754,40.17816,-19.97151,-33.40268,11.67308,-48.82634,21.61848,7.099718,17.96025,14.46851,-15.93483,-30.09672,74.91243,16.31642,-23.08638,-65.65176,4.655298,-19.70432,-59.95457,19.27546,-55.28358,24.85637,35.90663,6.564531,15.59368,2.476284,63.43447,29.59395,11.13423,45.1357,5.773195,-49.66796,-39.9079,22.79568,-55.01868,24.21222,18.64192,-16.26401,-11.35635,-42.90067,0.1470416,-52.39943,11.571,-62.33716,-28.20281,-5.731648,-18.9769,-62.18622,46.02227,-6.868445,15.58205,43.41544,-5.556468,20.29302,37.72993,-5.71808,-33.97792,5.38109,58.16026,-0.3881334,-30.03997,-64.04024,-40.47065,35.97345,56.69545,12.55384,-60.85336,-2.94181,57.00677,1.625532,63.71356,93.75594,-56.17368,19.58732,43.02758,45.14785,23.41871,-96.56901,4.52539,39.62886,-5.19683,3.482155,18.49657,-10.3171,-75.09399,10.24579,34.03177,52.21836,-38.98365,-30.62004,26.56526,20.41149,-52.00082,-33.15218,-4.518014,42.24996,27.35972,-17.72768,43.82975,44.69843,-24.52291,23.63261,-12.01142,60.78442,-41.91178,5.494024,24.37774,-19.41347,16.23518,-5.967156,68.42021,43.44407,5.474732,31.83898,19.54611,73.7201,3.695545,20.58914,-4.64678,21.65303,27.41875,-37.71227,4.666799,-29.63408,7.968733,5.852166,21.04511,-2.546315,-11.56886,-17.65291,7.395331,-3.173504,-15.40453,-13.61052,-0.1123863};


arm_status mvstatus;

/* USER CODE END PV */

/* Private function prototypes -----------------------------------------------*/
void SystemClock_Config(void);
static void MPU_Config(void);
static void MX_GPIO_Init(void);
/* USER CODE BEGIN PFP */

/* USER CODE END PFP */

/* Private user code ---------------------------------------------------------*/
/* USER CODE BEGIN 0 */

/* USER CODE END 0 */

/**
  * @brief  The application entry point.
  * @retval int
  */
int main(void)
{

  /* USER CODE BEGIN 1 */

  /* USER CODE END 1 */

  /* MPU Configuration--------------------------------------------------------*/
  MPU_Config();

  /* MCU Configuration--------------------------------------------------------*/

  /* Reset of all peripherals, Initializes the Flash interface and the Systick. */
  HAL_Init();

  /* USER CODE BEGIN Init */

  /* USER CODE END Init */

  /* Configure the system clock */
  SystemClock_Config();

  /* USER CODE BEGIN SysInit */

  /* USER CODE END SysInit */

  /* Initialize all configured peripherals */
  MX_GPIO_Init();
  /* USER CODE BEGIN 2 */

  CoreDebug -> DEMCR |= CoreDebug_DEMCR_TRCENA_Msk;
  DWT -> CYCCNT = 0;
  DWT -> CTRL |= DWT_CTRL_CYCCNTENA_Msk;


  uint64_t t1 = DWT -> CYCCNT;
  //CODE TO MEASURE BEGING

  mvstatus = MVDR_f32(arraySize, snapshotSize, snapshotI, snapshotQ, (float32_t *)qiescentWeights, mvdrWeights);

  //CODE TO MEASURE END
  uint64_t t2 = DWT -> CYCCNT;

  execcyc = t2-t1;
  execus = execcyc/CPUFREQ;

  HAL_Delay(10);

  /* USER CODE END 2 */

  /* Infinite loop */
  /* USER CODE BEGIN WHILE */
  while (1)
  {
    /* USER CODE END WHILE */

    /* USER CODE BEGIN 3 */
  }
  /* USER CODE END 3 */
}

/**
  * @brief System Clock Configuration
  * @retval None
  */
void SystemClock_Config(void)
{
  RCC_OscInitTypeDef RCC_OscInitStruct = {0};
  RCC_ClkInitTypeDef RCC_ClkInitStruct = {0};

  /** Supply configuration update enable
  */
  HAL_PWREx_ConfigSupply(PWR_LDO_SUPPLY);

  /** Configure the main internal regulator output voltage
  */
  __HAL_PWR_VOLTAGESCALING_CONFIG(PWR_REGULATOR_VOLTAGE_SCALE0);

  while(!__HAL_PWR_GET_FLAG(PWR_FLAG_VOSRDY)) {}

  /** Initializes the RCC Oscillators according to the specified parameters
  * in the RCC_OscInitTypeDef structure.
  */
  RCC_OscInitStruct.OscillatorType = RCC_OSCILLATORTYPE_HSE;
  RCC_OscInitStruct.HSEState = RCC_HSE_ON;
  RCC_OscInitStruct.PLL.PLLState = RCC_PLL_ON;
  RCC_OscInitStruct.PLL.PLLSource = RCC_PLLSOURCE_HSE;
  RCC_OscInitStruct.PLL.PLLM = 2;
  RCC_OscInitStruct.PLL.PLLN = 44;
  RCC_OscInitStruct.PLL.PLLP = 1;
  RCC_OscInitStruct.PLL.PLLQ = 2;
  RCC_OscInitStruct.PLL.PLLR = 2;
  RCC_OscInitStruct.PLL.PLLRGE = RCC_PLL1VCIRANGE_3;
  RCC_OscInitStruct.PLL.PLLVCOSEL = RCC_PLL1VCOWIDE;
  RCC_OscInitStruct.PLL.PLLFRACN = 0;
  if (HAL_RCC_OscConfig(&RCC_OscInitStruct) != HAL_OK)
  {
    Error_Handler();
  }

  /** Initializes the CPU, AHB and APB buses clocks
  */
  RCC_ClkInitStruct.ClockType = RCC_CLOCKTYPE_HCLK|RCC_CLOCKTYPE_SYSCLK
                              |RCC_CLOCKTYPE_PCLK1|RCC_CLOCKTYPE_PCLK2
                              |RCC_CLOCKTYPE_D3PCLK1|RCC_CLOCKTYPE_D1PCLK1;
  RCC_ClkInitStruct.SYSCLKSource = RCC_SYSCLKSOURCE_PLLCLK;
  RCC_ClkInitStruct.SYSCLKDivider = RCC_SYSCLK_DIV1;
  RCC_ClkInitStruct.AHBCLKDivider = RCC_HCLK_DIV2;
  RCC_ClkInitStruct.APB3CLKDivider = RCC_APB3_DIV2;
  RCC_ClkInitStruct.APB1CLKDivider = RCC_APB1_DIV2;
  RCC_ClkInitStruct.APB2CLKDivider = RCC_APB2_DIV2;
  RCC_ClkInitStruct.APB4CLKDivider = RCC_APB4_DIV2;

  if (HAL_RCC_ClockConfig(&RCC_ClkInitStruct, FLASH_LATENCY_3) != HAL_OK)
  {
    Error_Handler();
  }
}

/**
  * @brief GPIO Initialization Function
  * @param None
  * @retval None
  */
static void MX_GPIO_Init(void)
{
/* USER CODE BEGIN MX_GPIO_Init_1 */
/* USER CODE END MX_GPIO_Init_1 */

  /* GPIO Ports Clock Enable */
  __HAL_RCC_GPIOH_CLK_ENABLE();
  __HAL_RCC_GPIOA_CLK_ENABLE();

/* USER CODE BEGIN MX_GPIO_Init_2 */
/* USER CODE END MX_GPIO_Init_2 */
}

/* USER CODE BEGIN 4 */

/* USER CODE END 4 */

 /* MPU Configuration */

void MPU_Config(void)
{
  MPU_Region_InitTypeDef MPU_InitStruct = {0};

  /* Disables the MPU */
  HAL_MPU_Disable();

  /** Initializes and configures the Region and the memory to be protected
  */
  MPU_InitStruct.Enable = MPU_REGION_ENABLE;
  MPU_InitStruct.Number = MPU_REGION_NUMBER0;
  MPU_InitStruct.BaseAddress = 0x0;
  MPU_InitStruct.Size = MPU_REGION_SIZE_4GB;
  MPU_InitStruct.SubRegionDisable = 0x87;
  MPU_InitStruct.TypeExtField = MPU_TEX_LEVEL0;
  MPU_InitStruct.AccessPermission = MPU_REGION_NO_ACCESS;
  MPU_InitStruct.DisableExec = MPU_INSTRUCTION_ACCESS_DISABLE;
  MPU_InitStruct.IsShareable = MPU_ACCESS_SHAREABLE;
  MPU_InitStruct.IsCacheable = MPU_ACCESS_NOT_CACHEABLE;
  MPU_InitStruct.IsBufferable = MPU_ACCESS_NOT_BUFFERABLE;

  HAL_MPU_ConfigRegion(&MPU_InitStruct);
  /* Enables the MPU */
  HAL_MPU_Enable(MPU_PRIVILEGED_DEFAULT);

}

/**
  * @brief  This function is executed in case of error occurrence.
  * @retval None
  */
void Error_Handler(void)
{
  /* USER CODE BEGIN Error_Handler_Debug */
  /* User can add his own implementation to report the HAL error return state */
  __disable_irq();
  while (1)
  {
  }
  /* USER CODE END Error_Handler_Debug */
}

#ifdef  USE_FULL_ASSERT
/**
  * @brief  Reports the name of the source file and the source line number
  *         where the assert_param error has occurred.
  * @param  file: pointer to the source file name
  * @param  line: assert_param error line source number
  * @retval None
  */
void assert_failed(uint8_t *file, uint32_t line)
{
  /* USER CODE BEGIN 6 */
  /* User can add his own implementation to report the file name and line number,
     ex: printf("Wrong parameters value: file %s on line %d\r\n", file, line) */
  /* USER CODE END 6 */
}
#endif /* USE_FULL_ASSERT */
